svm_type c_svc
kernel_type rbf
gamma 0.00970874
nr_class 2
total_sv 10
rho 0.929944
label 1 -1
nr_sv 3 7
SV
1 2:1 6:1 16:1 22:1 36:1 40:1 54:1 63:1 67:1 73:1 75:1 76:1 80:1 83:1 
1 2:1 6:1 18:1 20:1 37:1 42:1 48:1 64:1 71:1 73:1 74:1 76:1 81:1 83:1 
1 4:1 10:1 15:1 24:1 38:1 41:1 52:1 66:1 67:1 72:1 74:1 76:1 82:1 83:1 
-0.3571115712025227 3:1 11:1 14:1 19:1 39:1 42:1 55:1 64:1 67:1 73:1 75:1 76:1 80:1 83:1 
-0.3907743572937957 3:1 6:1 17:1 27:1 35:1 40:1 57:1 63:1 69:1 73:1 74:1 76:1 81:1 103:1 
-0.3983438368344093 4:1 6:1 15:1 21:1 35:1 40:1 57:1 63:1 67:1 73:1 74:1 77:1 80:1 83:1 
-0.6964375495385572 5:1 6:1 15:1 22:1 36:1 41:1 47:1 66:1 67:1 72:1 74:1 76:1 80:1 83:1 
-0.8778118895464501 2:1 6:1 14:1 20:1 37:1 41:1 47:1 64:1 67:1 73:1 74:1 76:1 82:1 83:1 
-0.1146082599944524 1:1 6:1 14:1 22:1 36:1 42:1 49:1 64:1 67:1 72:1 74:1 77:1 80:1 83:1 
-0.1649125355898125 1:1 6:1 17:1 19:1 39:1 42:1 53:1 64:1 67:1 73:1 74:1 76:1 80:1 83:1 
