svm_type c_svc
kernel_type rbf
gamma 0.00934579
nr_class 2
total_sv 11
rho 1.02141
label 1 -1
nr_sv 2 9
SV
1 5:1 11:1 15:1 32:1 39:1 40:1 52:1 63:1 67:1 73:1 74:1 76:1 78:1 83:1 
1 5:1 18:1 19:1 39:1 40:1 63:1 67:1 73:1 74:1 76:1 80:1 83:1 
-0.1760675296671983 3:1 11:1 14:1 19:1 39:1 42:1 55:1 64:1 67:1 73:1 75:1 76:1 80:1 83:1 
-0.04112314884390288 4:1 6:1 15:1 21:1 35:1 40:1 57:1 63:1 67:1 73:1 74:1 77:1 80:1 83:1 
-0.08569071713408868 5:1 6:1 15:1 22:1 36:1 41:1 47:1 66:1 67:1 72:1 74:1 76:1 80:1 83:1 
-0.07653069942281396 5:1 16:1 30:1 35:1 41:1 64:1 67:1 73:1 74:1 76:1 80:1 83:1 
-0.09263551433715631 5:1 6:1 15:1 20:1 37:1 40:1 50:1 63:1 67:1 73:1 75:1 76:1 80:1 83:1 
-0.6464727887043132 5:1 7:1 16:1 29:1 39:1 40:1 48:1 63:1 67:1 73:1 74:1 76:1 78:1 83:1 
-0.009367969192327727 1:1 11:1 18:1 20:1 37:1 42:1 59:1 62:1 71:1 72:1 74:1 76:1 80:1 83:1 
-0.3194916149374429 2:1 11:1 18:1 20:1 37:1 40:1 54:1 63:1 67:1 73:1 74:1 76:1 80:1 83:1 
-0.552620017760756 2:1 6:1 15:1 19:1 39:1 40:1 52:1 63:1 67:1 73:1 74:1 76:1 82:1 83:1 
