svm_type c_svc
kernel_type rbf
gamma 0.0625
nr_class 26
total_sv 11718
rho 0.413604 -0.666073 0.0442698 -0.240476 -0.537059 -0.162344 0.332757 -1.13634 0.0814387 -0.14194 -0.80031 -0.217974 0.237301 0.146431 -0.405687 -0.0973466 0.415346 -0.519033 0.224818 -0.47472 -0.440564 -0.80863 0.12873 -0.897694 0.57529 -1.19629 -0.919126 -2.58556 -0.664617 -1.93856 -0.710054 -0.921128 -0.890518 -1.87272 -0.916037 -0.767854 0.0332818 -0.814305 -0.457917 -1.01477 -0.669868 -1.12187 -0.986104 -2.20646 -1.64404 -0.915379 -1.25782 -1.33063 -0.80053 -0.0199664 0.431415 -0.178684 0.41579 0.894586 -0.741122 2.21182 0.0960274 0.270755 0.395054 0.268991 1.69754 -0.328672 0.938873 1.96807 -1.17264 0.681093 0.147873 -1.57908 -0.483881 0.0872567 -0.914395 0.955832 0.669274 -0.190723 0.182409 0.264979 -0.451981 0.475874 -0.038086 -0.144943 0.768437 1.64734 0.00262395 0.421177 0.20805 0.262871 0.71112 -0.441865 0.139334 -0.370163 -0.133163 -0.577834 -0.801631 -0.166574 0.137876 0.612356 0.0756299 0.395701 0.594272 -0.0136539 -0.244337 0.227213 0.885435 -0.0401581 0.668708 -0.141463 0.0305582 0.567477 0.0935652 0.383944 -0.334478 -0.257657 -0.681359 0.0404311 0.0276317 0.0203312 -0.0315717 -0.248039 0.268575 -0.175829 -1.11932 -0.140247 0.421279 1.16237 1.1327 0.443485 1.46088 0.0121491 -0.129333 0.590962 -0.453564 -0.377124 0.372667 -0.402552 0.502732 -0.0830567 -0.254871 0.594289 -0.513201 -0.331602 -0.121784 0.403523 0.756584 0.359566 -0.298498 -0.255968 -1.10685 -0.0829105 -1.292 -0.686329 -0.0543355 -0.081291 -0.0574961 -0.196194 -1.76091 -0.454953 -0.172166 -1.75176 0.065771 0.138809 -0.254754 -0.379912 0.628271 1.08547 -0.938636 -0.912608 0.463377 -1.2206 -1.16116 -0.255021 -1.2103 -0.165876 1.6951 0.43435 -0.211723 0.156183 0.814199 1.40775 1.5944 1.0582 2.33226 0.728497 1.32085 0.0799215 0.162578 1.62427 -0.342594 0.760628 1.32551 -0.728161 -0.0389015 0.153938 0.207857 -0.0395527 -0.784514 1.25294 0.296448 0.462421 -0.994459 -1.38596 -2.82691 0.836619 -0.787327 -1.33401 0.605186 -0.995632 0.287861 0.604099 0.236219 0.813271 -0.225128 0.879002 0.719333 -0.0513049 0.631397 -0.165508 -1.06095 -0.189303 -1.39815 0.192622 2.12547 1.54016 1.22774 1.86511 2.84557 2.40122 6.46363 0.0778202 0.736855 -0.458091 2.08078 0.378741 -0.581697 1.72963 0.552863 0.813455 0.544142 -0.207411 1.03325 0.289296 -0.562748 -0.0313228 -0.327691 -0.5199 -0.646697 -0.461367 0.10632 -0.588185 0.320958 -0.206724 0.223342 -0.446237 -0.985615 -0.28425 -0.67845 -0.559985 -1.90751 -0.770277 -0.179611 -1.06627 0.131308 0.218575 -0.946008 -1.7819 0.208609 -0.70518 -0.808506 -0.878792 -0.622308 -0.301008 -0.0504377 0.821658 -2.64539 -2.55913 -0.402422 -0.362649 -0.479345 -0.690591 -0.949444 0.0390136 0.521046 -0.991567 -0.763676 -0.118723 -1.24286 -1.49374 -0.62397 -1.58534 -0.540082 -1.99585 -1.42314 -0.215786 -1.75643 -1.63222 -0.385206 -2.51045 -0.161555 -0.88334 0.569013 0.193818 0.339127 -0.147665 -0.532545 0.406571 0.545909 -0.803259 0.721505 3.16953 -1.07368 1.25771 -1.066 -0.669777 -0.98546 -0.844526 0.269693 0.51227 0.299903 0.577595 0.799323 -0.17893 -1.31438 0.873744 0.187428 1.05215 1.28545
label 26 25 24 23 22 21 20 19 18 17 16 15 14 13 12 11 10 9 8 7 6 5 4 3 2 1
nr_sv 379 547 555 306 483 406 473 551 477 486 372 544 478 347 285 530 400 371 534 545 463 511 478 398 524 275
SV
0 1 0 0 0 0 1 0 0 0 0 0 0 0 0 0 1 0 0 0 0 0 0 0 0 1:-0.866667 2:-1 3:-0.866667 4:-1 5:-1 6:0.0666667 7:-0.0666667 8:-0.733333 9:0.2 10:0.0666667 11:-0.2 12:0.0666667 13:-1 14:0.0666667 15:-0.333333 16:0.0666667 
0 1 0 0 0 0 1 0 0 0 0 0 0 0 0 0 1 0 0 0 0.9499400699025643 0 0 0 0 1:-0.866667 2:-1 3:-0.866667 4:-1 5:-1 6:-0.0666667 7:-0.0666667 8:-0.733333 9:0.2 10:0.0666667 11:-0.2 12:0.0666667 13:-1 14:0.0666667 15:-0.333333 16:0.0666667 
0 1 0 0 0 0 1 0 0 0 0 0 0 0 0 0 0 0 0 0 0 0 0 0 0 1:-0.866667 2:-1 3:-0.866667 4:-1 5:-1 6:-0.0666667 7:-0.0666667 8:-0.733333 9:0.2 10:0.0666667 11:-0.2 12:0.0666667 13:-1 14:0.0666667 15:-0.2 16:0.0666667 
0 1 0 0 0 0 0 0 0 0 0 0 0 0 0 0 0 0 0 0 0 0 0 0 0 1:-0.866667 2:-1 3:-0.733333 4:-1 5:-1 6:-0.0666667 7:-0.0666667 8:-0.733333 9:0.333333 10:0.0666667 11:-0.2 12:0.0666667 13:-1 14:0.0666667 15:-0.2 16:0.0666667 
0 0 0 0 0 0 1 0 0 0 0 0 0 0 0 0 0 0 0 0 0 0 0 0 0 1:-0.866667 2:-1 3:-0.733333 4:-1 5:-1 6:-0.0666667 7:-0.0666667 8:-0.6 9:0.333333 10:0.0666667 11:-0.2 12:0.0666667 13:-1 14:0.0666667 15:-0.2 16:0.0666667 
0 0.5074835991540187 0 0 0 0 0 0 0 0 0 0 0 0 0 0 0 0 0 0 0 0 0 0 0 1:-0.866667 2:-1 3:-0.733333 4:-0.866667 5:-1 6:-0.0666667 7:-0.0666667 8:-0.733333 9:0.466667 10:0.0666667 11:-0.2 12:0.0666667 13:-1 14:0.0666667 15:-0.2 16:0.0666667 
0 1 0 0 0 0 0 0 0 0 0 0 0 0 0 0 0 0 0 0 0 0 0 0 0 1:-0.866667 2:-1 3:-0.733333 4:-0.866667 5:-1 6:-0.0666667 7:-0.0666667 8:-0.733333 9:0.333333 10:0.0666667 11:-0.2 12:0.0666667 13:-1 14:0.0666667 15:-0.2 16:0.0666667 
0 1 0 0 0 0 0 0 0 0 0 0 0 0 0 0 0 0 0 0 0 0 0 0 0 1:-0.866667 2:-1 3:-0.733333 4:-0.866667 5:-1 6:-0.0666667 7:-0.0666667 8:-0.733333 9:0.333333 10:0.0666667 11:-0.2 12:0.0666667 13:-1 14:0.0666667 15:-0.2 16:0.0666667 
0 1 0 0 0 0 0 0 0 0 0 0 0 0 0 0 0 0 0 0 0 0 0 0 0 1:-0.866667 2:-1 3:-0.733333 4:-0.866667 5:-1 6:-0.0666667 7:-0.0666667 8:-0.733333 9:0.333333 10:0.0666667 11:-0.2 12:0.0666667 13:-1 14:0.0666667 15:-0.2 16:0.0666667 
0 1 0 0 0 0 0 0 0 0 0 0 0 0 0 0 0 0 0 0 0 0 0 0 0 1:-0.866667 2:-1 3:-0.733333 4:-0.866667 5:-1 6:-0.0666667 7:-0.0666667 8:-0.733333 9:0.333333 10:0.0666667 11:-0.2 12:0.0666667 13:-1 14:0.0666667 15:-0.2 16:0.0666667 
0 0 0 0 0 0 0.8066965224329401 0 0 0 0 0 0 0 0 0 0 0 0 0 0 0 0 0 0 1:-0.866667 2:-1 3:-0.733333 4:-0.866667 5:-1 6:-0.0666667 7:-0.0666667 8:-0.6 9:0.333333 10:0.0666667 11:-0.2 12:0.0666667 13:-1 14:0.0666667 15:-0.2 16:0.0666667 
0 1 0 0 0 0 1 1 0 0 1 0 0 1 1 0 1 1 1 0 1 0 0 1 0 1:-0.866667 2:-0.866667 3:-0.733333 4:-0.733333 5:-0.866667 6:-0.0666667 7:-0.0666667 8:-0.466667 9:0.0666667 10:-0.2 11:-0.2 12:0.0666667 13:-0.866667 14:0.0666667 15:-0.2 16:0.0666667 
0 0 0 0 0 0 1 0 0 0 0 0 0 0 0 0 0 0 0 0 1 0 0.1000738079666366 0 0 1:-0.866667 2:-0.866667 3:-0.733333 4:-0.733333 5:-0.866667 6:-0.0666667 7:0.0666667 8:-0.333333 9:0.0666667 10:-0.2 11:-0.2 12:0.2 13:-0.866667 14:0.0666667 15:-0.0666667 16:-0.0666667 
0 1 0 0 0 0 1 0 0 0 0 0 0 0 0 0 0 0 1 0 1 0 1 0 0 1:-0.866667 2:-0.866667 3:-0.733333 4:-0.6 5:-0.866667 6:-0.0666667 7:0.0666667 8:-0.333333 9:0.0666667 10:-0.2 11:-0.2 12:0.2 13:-0.866667 14:0.2 15:-0.0666667 16:0.0666667 
0 1 0 0 0 0 1 0 0 0 0 0 0 0 0 1 1 0 0 0 1 0 0 0 0 1:-0.866667 2:-0.6 3:-0.733333 4:-0.866667 5:-0.866667 6:0.0666667 7:-0.0666667 8:-0.866667 9:0.0666667 10:0.466667 11:-0.2 12:0.0666667 13:-0.866667 14:0.0666667 15:-0.333333 16:0.0666667 
0 1 0 0 1 0 1 1 1 0 1 0.3092374953234662 0 1 1 0 1 1 1 0 1 1 1 1 0.2282185028253454 1:-0.866667 2:-0.6 3:-0.733333 4:-0.866667 5:-0.866667 6:-0.0666667 7:-0.0666667 8:-0.333333 9:0.0666667 10:-0.2 11:-0.2 12:0.0666667 13:-0.866667 14:0.0666667 15:-0.2 16:0.0666667 
0 1 0 0 0 0 0 0 0 0 0 0 0 1 1 1 1 0 0 1 1 0 0 0 0 1:-0.866667 2:-0.6 3:-0.733333 4:-0.733333 5:-0.866667 6:-0.0666667 7:-0.0666667 8:-0.866667 9:0.0666667 10:0.466667 11:-0.2 12:0.2 13:-0.866667 14:0.2 15:-0.333333 16:0.0666667 
1 1 0 1 0.4443419046158281 0 1 1 1 0 1 0 0 1 1 1 1 1 1 1 1 0 1 1 1 1:-0.866667 2:-0.6 3:-0.733333 4:-0.733333 5:-0.866667 6:-0.0666667 7:-0.0666667 8:-0.466667 9:-0.0666667 10:-0.2 11:-0.2 12:0.0666667 13:-0.866667 14:0.0666667 15:-0.2 16:0.0666667 
0 1 0 0 0 0 1 0 0 0 0 0 0 0 0 0 0 0 0 0 0 0 0 1 0 1:-0.866667 2:-0.6 3:-0.733333 4:-0.733333 5:-0.866667 6:0.0666667 7:-0.0666667 8:-0.333333 9:0.0666667 10:-0.2 11:-0.2 12:-0.0666667 13:-0.866667 14:0.0666667 15:-0.0666667 16:0.0666667 
0 1 0 0 0 0 1 0 0 0 0 0 0 0 0 0 0 0 1 0 1 0 0 1 0 1:-0.866667 2:-0.6 3:-0.733333 4:-0.733333 5:-0.866667 6:-0.0666667 7:-0.0666667 8:-0.333333 9:0.0666667 10:-0.2 11:-0.2 12:0.0666667 13:-0.866667 14:0.0666667 15:-0.0666667 16:0.0666667 
0 1 0 0 0 0 1 0 0 0 0 0 0 0 0 0 0 0 1 0 1 0 0 1 0 1:-0.866667 2:-0.6 3:-0.733333 4:-0.733333 5:-0.866667 6:-0.0666667 7:-0.0666667 8:-0.333333 9:0.0666667 10:-0.2 11:-0.2 12:0.0666667 13:-0.866667 14:0.0666667 15:-0.0666667 16:0.0666667 
0 1 0 0 0 0 1 0 0.9852793236737007 0 0 0 0 0 0 0 0 0 1 0 1 0 0 1 0 1:-0.866667 2:-0.6 3:-0.733333 4:-0.733333 5:-0.866667 6:-0.0666667 7:-0.0666667 8:-0.333333 9:0.0666667 10:-0.2 11:-0.2 12:0.0666667 13:-0.866667 14:0.0666667 15:-0.0666667 16:0.0666667 
1 1 1 1 1 1 1 1 1 0 1 1 1 1 1 1 1 1 1 0 1 1 1 1 1 1:-0.866667 2:-0.6 3:-0.733333 4:-0.733333 5:-0.866667 6:-0.0666667 7:-0.0666667 8:-0.333333 9:0.0666667 10:-0.2 11:-0.2 12:0.0666667 13:-0.733333 14:0.0666667 15:-0.2 16:0.0666667 
0 1 0 0 0 0 1 1 1 0 1 0 0 1 1 0 0 0 1 0 1 0 1 1 0 1:-0.866667 2:-0.6 3:-0.733333 4:-0.733333 5:-0.866667 6:-0.0666667 7:-0.0666667 8:-0.333333 9:0.0666667 10:-0.2 11:-0.2 12:0.0666667 13:-0.733333 14:0.0666667 15:-0.0666667 16:0.0666667 
0 1 0 0 0 0 0 0 0 0 0 0 0 0 0 0 1 0 0 0 0 0 0 0 0 1:-0.866667 2:-0.6 3:-0.6 4:-0.733333 5:-0.866667 6:0.0666667 7:-0.0666667 8:-0.866667 9:0.2 10:0.466667 11:-0.2 12:0.0666667 13:-0.866667 14:0.0666667 15:-0.333333 16:-0.0666667 
0 1 0 0 0 0 0 0 0 0 0 0 0 0 0 0.2756743965835817 1 0 0 0 0 0 0 0 0 1:-0.866667 2:-0.6 3:-0.6 4:-0.733333 5:-0.866667 6:-0.0666667 7:0.0666667 8:-0.866667 9:0.2 10:0.466667 11:-0.0666667 12:-0.0666667 13:-0.866667 14:0.0666667 15:-0.333333 16:-0.0666667 
0 0 0 0 0 0 0 0 0 0 0 0 0 0 0 0 0 0 0 0 1 0 0 0 0 1:-0.866667 2:-0.6 3:-0.6 4:-0.733333 5:-0.866667 6:0.0666667 7:-0.0666667 8:-0.733333 9:0.2 10:0.466667 11:-0.2 12:0.2 13:-0.866667 14:0.0666667 15:-0.333333 16:-0.0666667 
0 0 0 0 0 0 0 0 0 0 0 0 0 0 0 0 1 0 0 0 1 0 0 0 0 1:-0.866667 2:-0.6 3:-0.6 4:-0.733333 5:-0.866667 6:-0.0666667 7:0.0666667 8:-0.733333 9:0.2 10:0.466667 11:-0.2 12:0.0666667 13:-0.866667 14:0.0666667 15:-0.333333 16:-0.0666667 
0 0 0 0 0 0 0 0 0 0 0 0 0 0 0 0 1 0 0 0 1 0 0 0 0 1:-0.866667 2:-0.6 3:-0.6 4:-0.733333 5:-0.866667 6:-0.0666667 7:0.0666667 8:-0.733333 9:0.2 10:0.466667 11:-0.2 12:0.0666667 13:-0.866667 14:0.0666667 15:-0.333333 16:-0.0666667 
0 0.5812717538114494 0 0 0 0 1 0 0 0 0 0 0 1 0 0 0 0 1 0 1 0 1 0 0 1:-0.866667 2:-0.466667 3:-0.733333 4:-0.733333 5:-0.866667 6:-0.0666667 7:0.0666667 8:-0.333333 9:0.0666667 10:-0.2 11:-0.2 12:0.2 13:-0.866667 14:0.0666667 15:-0.0666667 16:-0.0666667 
0 1 0 0 0 0 1 1 0 0 0 0 0 0 0 0 0 0 0 0 0 1 0 1 0 1:-0.866667 2:-0.466667 3:-0.733333 4:-0.6 5:-0.733333 6:0.0666667 7:-0.0666667 8:-0.333333 9:0.0666667 10:-0.2 11:-0.2 12:-0.0666667 13:-0.733333 14:0.0666667 15:-0.0666667 16:0.0666667 
0 0 0 0 0 0 0.7414251710505911 0 0 0 0 0 0 0 0 1 1 0 0 0 1 0 0 0 0 1:-0.866667 2:-0.466667 3:-0.6 4:-0.6 5:-0.866667 6:-0.0666667 7:-0.0666667 8:-0.733333 9:0.2 10:0.466667 11:-0.2 12:0.0666667 13:-0.866667 14:0.0666667 15:-0.333333 16:0.0666667 
0 1 0 0 0 0 1 0 0 0 1 0 0 0 0 0 0 0 1 0 1 0 0 0.2984930838397452 0 1:-0.733333 2:-0.866667 3:-0.733333 4:-0.866667 5:-0.866667 6:0.0666667 7:-0.0666667 8:-0.333333 9:0.2 10:-0.2 11:-0.2 12:0.0666667 13:-0.866667 14:0.0666667 15:-0.2 16:0.0666667 
0 1 0.1804675106956654 0.380927965857375 1 0.5319013551273871 1 1 1 0 1 1 0 1 1 0 0 1 1 0 1 0.3738122218690165 1 1 0 1:-0.733333 2:-0.866667 3:-0.733333 4:-0.866667 5:-0.866667 6:-0.0666667 7:-0.0666667 8:-0.333333 9:0.0666667 10:-0.2 11:-0.2 12:0.0666667 13:-0.866667 14:0.0666667 15:-0.2 16:0.0666667 
0 1 0 0 0.8981187963039905 0 1 0 0 0 1 0 0 0 0 0 0 0 1 0 1 0 1 0 0 1:-0.733333 2:-0.866667 3:-0.733333 4:-0.733333 5:-0.866667 6:-0.0666667 7:-0.0666667 8:-0.333333 9:0.2 10:-0.2 11:-0.2 12:0.0666667 13:-0.866667 14:0.0666667 15:-0.2 16:0.0666667 
1 1 0 0 0 0 1 1 0 0 1 0 0 0 0 0 0 1 1 0 0 1 0 1 0 1:-0.733333 2:-0.866667 3:-0.733333 4:-0.733333 5:-0.733333 6:0.0666667 7:-0.0666667 8:-0.333333 9:0.0666667 10:-0.2 11:-0.2 12:-0.0666667 13:-0.866667 14:0.0666667 15:-0.2 16:0.0666667 
0 1 0 0 0 0 1 0 0 0 0 0 0 0 0 0 0 0 1 0 1 0 1 0 0 1:-0.733333 2:-0.866667 3:-0.6 4:-0.733333 5:-0.866667 6:-0.0666667 7:-0.0666667 8:-0.333333 9:0.2 10:-0.2 11:-0.2 12:0.2 13:-0.866667 14:0.0666667 15:-0.0666667 16:0.0666667 
0 1 0 0 0 0 1 0 0 0 0 0 0 0 0 0 0 0 1 0 0 0 0 0 0 1:-0.733333 2:-0.866667 3:-0.6 4:-0.733333 5:-0.866667 6:-0.0666667 7:-0.0666667 8:-0.333333 9:0.2 10:-0.2 11:-0.2 12:0.0666667 13:-0.866667 14:0.0666667 15:-0.0666667 16:0.0666667 
0 1 0 0 0 0 1 0 0 0 0 0 0 0 0 0 0 0 0 0 0 0 0 0 0 1:-0.733333 2:-0.866667 3:-0.6 4:-0.733333 5:-0.733333 6:-0.0666667 7:-0.0666667 8:-0.333333 9:0.2 10:-0.2 11:-0.2 12:0.0666667 13:-0.866667 14:0.0666667 15:-0.0666667 16:0.0666667 
0 1 0 0 0 0 1 0 0 0 1 0 0 0 1 0 0 0 1 0 1 0 0 1 0 1:-0.733333 2:-0.866667 3:-0.6 4:-0.733333 5:-0.733333 6:-0.0666667 7:-0.0666667 8:-0.333333 9:0.2 10:-0.2 11:-0.2 12:0.0666667 13:-0.733333 14:0.0666667 15:-0.0666667 16:0.0666667 
0 1 0 0 0 0 1 0.02469673837119341 0 0 1 0 0 0 1 0 0 0.8989515002353897 1 0 1 0 0 1 0 1:-0.733333 2:-0.866667 3:-0.6 4:-0.733333 5:-0.733333 6:-0.0666667 7:-0.0666667 8:-0.333333 9:0.2 10:-0.2 11:-0.2 12:0.0666667 13:-0.733333 14:0.0666667 15:-0.0666667 16:0.0666667 
0 1 1 1 1 0 1 1 1 0 1 0 0.2519172544241136 1 1 0 0 1 1 0 1 0 1 1 0 1:-0.733333 2:-0.866667 3:-0.6 4:-0.733333 5:-0.733333 6:-0.0666667 7:-0.0666667 8:-0.333333 9:0.0666667 10:-0.2 11:-0.2 12:0.2 13:-0.733333 14:0.0666667 15:-0.0666667 16:0.0666667 
0 1 0 0 0 0 1 0 0 0 0 0 0 0 0 0 0 0 0 0 1 0 1 0 0 1:-0.733333 2:-0.866667 3:-0.6 4:-0.6 5:-0.733333 6:-0.0666667 7:0.0666667 8:-0.333333 9:0.2 10:-0.2 11:-0.2 12:0.2 13:-0.866667 14:0.2 15:-0.0666667 16:0.0666667 
0 1 0 0 0 0 1 0 0 0 0 0 0 0 0 0 0 0 0 0 0 0 0 0 0 1:-0.733333 2:-0.866667 3:-0.6 4:-0.6 5:-0.733333 6:-0.0666667 7:-0.0666667 8:-0.333333 9:0.2 10:-0.2 11:-0.2 12:0.0666667 13:-0.866667 14:0.0666667 15:-0.0666667 16:0.0666667 
0 1 0 0 0 0 1 0 0 0 0 0 0 0 0 0 0 0 0 0 1 0 1 0 0 1:-0.733333 2:-0.733333 3:-0.6 4:-0.6 5:-0.733333 6:-0.0666667 7:0.0666667 8:-0.333333 9:0.2 10:-0.2 11:-0.2 12:0.2 13:-0.866667 14:0.2 15:-0.0666667 16:0.0666667 
0 1 0 0 0 0 1 0 0 0 0 0 0 0 0 0 0 0 0 0 0 0 0 0 0 1:-0.733333 2:-0.733333 3:-0.6 4:-0.6 5:-0.733333 6:-0.0666667 7:-0.0666667 8:-0.333333 9:0.2 10:-0.2 11:-0.2 12:0.0666667 13:-0.866667 14:0.0666667 15:-0.0666667 16:0.0666667 
0 1 0 0 0 0 1 0 0 0 0 0 0 0 0 0 0 0 0 0 0 0 0 0 0 1:-0.733333 2:-0.733333 3:-0.6 4:-0.6 5:-0.733333 6:-0.0666667 7:-0.0666667 8:-0.333333 9:0.2 10:-0.2 11:-0.2 12:0.0666667 13:-0.866667 14:0.0666667 15:-0.0666667 16:0.0666667 
0 1 0 0 0 0 1 0 0 0 0 0 0 0 0 0 0 0 0 0 0 0 0 1 0 1:-0.733333 2:-0.733333 3:-0.6 4:-0.6 5:-0.733333 6:0.0666667 7:-0.0666667 8:-0.333333 9:0.2 10:-0.2 11:-0.2 12:-0.0666667 13:-0.733333 14:0.0666667 15:-0.0666667 16:0.0666667 
0 1 0 0 0 0 1 0 0 0 0 0 0 0 1 0 0 0 0 0 1 0 0 1 0 1:-0.733333 2:-0.733333 3:-0.6 4:-0.6 5:-0.733333 6:-0.0666667 7:-0.0666667 8:-0.333333 9:0.2 10:-0.2 11:-0.2 12:0.0666667 13:-0.733333 14:0.0666667 15:-0.0666667 16:0.0666667 
0 1 0 0 0 0 1 0 0 0 0 0 0 0 1 0 0 0 0.9782626584936099 0 1 0 0 1 0 1:-0.733333 2:-0.733333 3:-0.6 4:-0.6 5:-0.733333 6:-0.0666667 7:-0.0666667 8:-0.333333 9:0.2 10:-0.2 11:-0.2 12:0.0666667 13:-0.733333 14:0.0666667 15:-0.0666667 16:0.0666667 
0 1 0 0 0 0 1 0 0 0 0 0 0 0 1 0 0 0 1 0 1 0 0 1 0 1:-0.733333 2:-0.733333 3:-0.6 4:-0.6 5:-0.733333 6:-0.0666667 7:-0.0666667 8:-0.333333 9:0.2 10:-0.2 11:-0.2 12:0.0666667 13:-0.733333 14:0.0666667 15:-0.0666667 16:0.0666667 
0.7552211076362452 1 0 0 0 0 1 0 0 0 0 0 0 0 0 0 0 0 0 0 1 0 1 0 0 1:-0.733333 2:-0.733333 3:-0.6 4:-0.6 5:-0.733333 6:-0.0666667 7:0.0666667 8:-0.333333 9:0.2 10:-0.2 11:-0.0666667 12:0.2 13:-0.866667 14:0.2 15:-0.0666667 16:0.0666667 
0 0 0 0 0 0 1 0 0 0 0 0 0 0 0 0 0 0 0 0 0 0 0 0 0 1:-0.733333 2:-0.733333 3:-0.6 4:-0.466667 5:-0.733333 6:0.0666667 7:-0.0666667 8:-0.333333 9:0.2 10:-0.2 11:-0.2 12:0.0666667 13:-0.866667 14:0.0666667 15:-0.0666667 16:0.0666667 
0 0 0 0 0 0 1 0 0 0 0 0 0 0 0 0 0 0 0 0 0 0 0 0 0 1:-0.733333 2:-0.733333 3:-0.6 4:-0.466667 5:-0.733333 6:0.0666667 7:-0.0666667 8:-0.333333 9:0.2 10:-0.2 11:-0.2 12:0.0666667 13:-0.866667 14:0.0666667 15:-0.0666667 16:0.0666667 
0 1 0 0 0 0 1 0 0 0 0 0 0 0 0 0 0 0 0 0 1 0 0 0 0 1:-0.733333 2:-0.733333 3:-0.6 4:-0.466667 5:-0.733333 6:-0.0666667 7:-0.0666667 8:-0.333333 9:0.2 10:-0.2 11:-0.2 12:0.0666667 13:-0.733333 14:0.0666667 15:-0.0666667 16:0.0666667 
0.1894663316481183 1 0 0 0 0 1 1 1 0 1 0 0 0 0 0.1046808709611502 1 1 1 0 1 1 0 1 0 1:-0.733333 2:-0.6 3:-0.733333 4:-0.866667 5:-0.866667 6:0.0666667 7:-0.0666667 8:-0.333333 9:0.0666667 10:-0.2 11:-0.2 12:-0.0666667 13:-0.866667 14:0.0666667 15:-0.2 16:0.0666667 
0 1 0 0 1 1 1 1 1 0 1 0 0 1 1 0 1 1 1 0 1 1 1 1 0 1:-0.733333 2:-0.6 3:-0.733333 4:-0.866667 5:-0.866667 6:-0.0666667 7:-0.0666667 8:-0.333333 9:0.0666667 10:-0.2 11:-0.2 12:0.0666667 13:-0.866667 14:0.0666667 15:-0.2 16:0.0666667 
0 1 0 0 1 0 1 1 1 0 1 0 0 0.3306712036820342 0 0 0 0 1 0 1 1 1 1 0 1:-0.733333 2:-0.6 3:-0.733333 4:-0.733333 5:-0.733333 6:-0.0666667 7:-0.0666667 8:-0.333333 9:0.2 10:-0.2 11:-0.2 12:0.0666667 13:-0.866667 14:0.0666667 15:-0.2 16:0.0666667 
0 0 0 0 0 0 1 0 0 0 0 0 0 0 0 0 0.8828415006331185 0 0 0 1 0 0 0 0 1:-0.733333 2:-0.6 3:-0.6 4:-0.733333 5:-0.866667 6:-0.0666667 7:0.0666667 8:-0.733333 9:0.2 10:0.466667 11:-0.2 12:0.0666667 13:-0.866667 14:0.0666667 15:-0.333333 16:-0.0666667 
0 1 0 0 0 0 1 0 0 0 0 0 0 0 0 0 0 0 1 0 1 0 1 0 0 1:-0.733333 2:-0.6 3:-0.6 4:-0.733333 5:-0.733333 6:-0.0666667 7:0.0666667 8:-0.333333 9:0.2 10:-0.2 11:-0.2 12:0.2 13:-0.866667 14:0.0666667 15:-0.0666667 16:0.0666667 
0 1 0 0 0 0 1 0 0 0 0 0 0 0 0 0 0 0 0 0 1 0 0 1 0 1:-0.733333 2:-0.6 3:-0.6 4:-0.733333 5:-0.733333 6:-0.0666667 7:-0.0666667 8:-0.333333 9:0.2 10:-0.2 11:-0.2 12:0.0666667 13:-0.866667 14:0.0666667 15:-0.0666667 16:0.0666667 
0 1 0 0 0 0 1 0 0 0 0 0 0 0 1 1 1 0 0 0 1 0 0 0 0 1:-0.733333 2:-0.6 3:-0.466667 4:-0.733333 5:-0.866667 6:0.0666667 7:-0.2 8:-0.733333 9:0.0666667 10:0.466667 11:-0.333333 12:0.2 13:-0.866667 14:0.0666667 15:-0.333333 16:0.0666667 
0 1 0 0 0 0 1 0 0 0 0 0 0 0 0 0 0 0 0 0 1 0 0 0 0 1:-0.733333 2:-0.6 3:-0.466667 4:-0.733333 5:-0.866667 6:-0.0666667 7:-0.0666667 8:-0.733333 9:0.2 10:0.466667 11:-0.2 12:0.0666667 13:-0.866667 14:0.0666667 15:-0.333333 16:-0.0666667 
0 1 0 0 0 0 1 0 0 0 0 0 0 0 0 0 0 0 0 0 1 0 0 0 0 1:-0.733333 2:-0.6 3:-0.466667 4:-0.733333 5:-0.866667 6:-0.0666667 7:-0.0666667 8:-0.733333 9:0.2 10:0.466667 11:-0.2 12:0.0666667 13:-0.866667 14:0.0666667 15:-0.333333 16:-0.0666667 
0 0 0 0 0 0 1 0 0 0.00628704962705174 0 0 0 0 0 0 0 1 0 1 1 0 0 1 0 1:-0.733333 2:-0.6 3:-0.466667 4:-0.733333 5:-0.733333 6:-0.0666667 7:0.0666667 8:-0.733333 9:0.2 10:0.6 11:-0.2 12:0.0666667 13:-0.866667 14:0.2 15:-0.333333 16:0.0666667 
0 0 0 0 0 0 0 0 0 0 0 0 0 0 0 0 0 0 0 0 1 0 0 0 0 1:-0.733333 2:-0.6 3:-0.466667 4:-0.733333 5:-0.733333 6:0.0666667 7:-0.0666667 8:-0.733333 9:0.2 10:0.6 11:-0.2 12:0.0666667 13:-0.866667 14:0.0666667 15:-0.333333 16:0.0666667 
0 0 0 0 0 0 1 0 0 0 0 0 0 0 0 0 0 0 0 -0 1 1 0 1 0 1:-0.733333 2:-0.6 3:-0.466667 4:-0.733333 5:-0.733333 6:-0.0666667 7:0.0666667 8:-0.733333 9:0.2 10:0.6 11:-0.0666667 12:-0.0666667 13:-0.866667 14:0.0666667 15:-0.333333 16:-0.0666667 
0 0 0 0 0 0 1 0 0 0 0 0 0 0 0 0 0 0 0 0 0 0 0 1 0 1:-0.733333 2:-0.466667 3:-0.733333 4:-0.6 5:-0.733333 6:0.0666667 7:-0.0666667 8:-0.333333 9:0.2 10:-0.2 11:-0.2 12:-0.0666667 13:-0.866667 14:0.0666667 15:-0.0666667 16:0.0666667 
0 1 0 0 1 1 1 1 1 0 1 0 0 1 1 0 0 0 1 0 1 0 1 1 0 1:-0.733333 2:-0.466667 3:-0.733333 4:-0.6 5:-0.733333 6:-0.0666667 7:0.0666667 8:-0.333333 9:0.0666667 10:-0.2 11:-0.2 12:0.2 13:-0.733333 14:0.0666667 15:-0.0666667 16:0.0666667 
0 1 0 0 0 0 1 1 1 0 1 0 0 0 1 0 0 0 1 0 1 1 0 1 0 1:-0.733333 2:-0.466667 3:-0.6 4:-0.733333 5:-0.733333 6:-0.0666667 7:-0.0666667 8:-0.333333 9:0.2 10:-0.2 11:-0.2 12:0.0666667 13:-0.733333 14:0.0666667 15:-0.0666667 16:0.0666667 
0 1 0 0 0 0 1 0 0 0 0 0 0 0 0 0 0 0 0 0 0 1 0 1 0 1:-0.733333 2:-0.466667 3:-0.6 4:-0.6 5:-0.733333 6:0.0666667 7:-0.0666667 8:-0.333333 9:0.2 10:-0.2 11:-0.2 12:-0.0666667 13:-0.733333 14:0.0666667 15:-0.0666667 16:0.0666667 
0 1 0 0 0 0 1 1 1 0 0.2068266071176866 0 0 0 0.1151172141450208 0 0 0 1 0 1 0 0 1 0 1:-0.733333 2:-0.466667 3:-0.6 4:-0.6 5:-0.733333 6:-0.0666667 7:-0.0666667 8:-0.333333 9:0.2 10:-0.2 11:-0.2 12:0.0666667 13:-0.733333 14:0.0666667 15:-0.0666667 16:0.0666667 
0 0 0 0 0 0 0 0 0 0 0 0 0 0 0 0 0 0 0 0 1 0 0 1 0 1:-0.733333 2:-0.466667 3:-0.466667 4:-0.733333 5:-0.733333 6:-0.0666667 7:-0.0666667 8:-0.733333 9:0.2 10:0.6 11:-0.2 12:0.0666667 13:-0.866667 14:0.0666667 15:-0.333333 16:0.0666667 
0 0 0 0 0 0 0 0 0 0 0 0 0 0 0 0 0 0 0 0 1 1 0 0 0 1:-0.733333 2:-0.466667 3:-0.466667 4:-0.733333 5:-0.733333 6:-0.0666667 7:-0.0666667 8:-0.733333 9:0.2 10:0.6 11:-0.2 12:0.0666667 13:-0.866667 14:0.0666667 15:-0.333333 16:-0.0666667 
0 1 0 0 0 0 1 0 0 0 0 0 0 0 0 1 1 0 0 0 1 0 0 0 0 1:-0.733333 2:-0.466667 3:-0.466667 4:-0.6 5:-0.866667 6:-0.0666667 7:0.0666667 8:-0.733333 9:0.2 10:0.466667 11:-0.2 12:0.0666667 13:-0.866667 14:0.0666667 15:-0.333333 16:-0.0666667 
0 1 0 0 0 1 1 0 0 0 0 0 0 0 0 1 1 0 0 0 0 0 0 0 0 1:-0.733333 2:-0.466667 3:-0.466667 4:-0.6 5:-0.866667 6:-0.0666667 7:0.0666667 8:-0.733333 9:0.2 10:0.466667 11:-0.0666667 12:-0.0666667 13:-0.866667 14:0.0666667 15:-0.333333 16:-0.2 
0 0 0 0 0 0 0 0 0 0 0 0 0 0 0 0 0 0 0 0 1 0 0 0 0 1:-0.733333 2:-0.466667 3:-0.466667 4:-0.6 5:-0.733333 6:0.0666667 7:-0.2 8:-0.733333 9:0.2 10:0.6 11:-0.333333 12:0.2 13:-0.866667 14:0.0666667 15:-0.333333 16:0.2 
0 1 0 0 0 0 0 0 0 0 0 0 0 0 0 0 0 0 0 0 1 0 0 0 0 1:-0.733333 2:-0.466667 3:-0.466667 4:-0.6 5:-0.733333 6:0.0666667 7:-0.2 8:-0.733333 9:0.2 10:0.466667 11:-0.333333 12:0.2 13:-0.866667 14:0.0666667 15:-0.333333 16:0.2 
0 0 0 0 0 0 0 0 0 0 0 0 0 0 0 0 0 0 0 0 1 0 0 0 0 1:-0.733333 2:-0.466667 3:-0.466667 4:-0.6 5:-0.733333 6:0.0666667 7:-0.2 8:-0.733333 9:0.2 10:0.466667 11:-0.333333 12:0.2 13:-0.866667 14:0.0666667 15:-0.2 16:0.2 
0 0 0 0 0 0 1 0 0 0 0 0 0 0 0 1 0 0 0 0 0 1 0 1 0 1:-0.733333 2:-0.466667 3:-0.466667 4:-0.6 5:-0.733333 6:0.0666667 7:-0.0666667 8:-0.733333 9:0.2 10:0.6 11:-0.2 12:-0.0666667 13:-0.866667 14:0.0666667 15:-0.333333 16:0.0666667 
0 0 0 0 0 0 0 0 0 0 0 0 0 0 0 0 0 0 0 0 1 0 0 0 0 1:-0.733333 2:-0.466667 3:-0.466667 4:-0.6 5:-0.733333 6:-0.0666667 7:0.0666667 8:-0.733333 9:0.2 10:0.6 11:-0.2 12:0.0666667 13:-0.866667 14:0.0666667 15:-0.333333 16:-0.0666667 
0 0 0 0 0 0 0 0 0 0 0 0 0 0 0 0 0 0 0 0 1 0 0 0 0 1:-0.733333 2:-0.466667 3:-0.466667 4:-0.6 5:-0.733333 6:-0.0666667 7:-0.0666667 8:-0.733333 9:0.2 10:0.6 11:-0.2 12:0.0666667 13:-0.866667 14:0.0666667 15:-0.333333 16:-0.0666667 
0 0 0 0 0 0 0 0 0 0 0 0 0 0 0 1 0 0 0 0 0 1 0 0 0 1:-0.733333 2:-0.466667 3:-0.466667 4:-0.6 5:-0.733333 6:-0.0666667 7:0.0666667 8:-0.733333 9:0.2 10:0.6 11:-0.0666667 12:-0.0666667 13:-0.866667 14:0.0666667 15:-0.333333 16:-0.2 
0 0 0 0 0 0 0 0 0 0 0 0 0 0 0 0 0 0 0 0 1 0 0 0 0 1:-0.733333 2:-0.466667 3:-0.466667 4:-0.6 5:-0.733333 6:0.0666667 7:-0.0666667 8:-0.733333 9:0.2 10:0.466667 11:-0.333333 12:0.2 13:-0.866667 14:0.0666667 15:-0.333333 16:0.0666667 
0 1 0 0 0 0 1 0 0 0 0 0 0 0 1 0 1 1 0 1 1 0 0 0 0 1:-0.733333 2:-0.466667 3:-0.466667 4:-0.6 5:-0.733333 6:-0.0666667 7:0.0666667 8:-0.733333 9:0.2 10:0.466667 11:-0.2 12:0.0666667 13:-0.866667 14:0.2 15:-0.333333 16:0.0666667 
0 1 0 0 0 0 1 0 0 0 0 0 0 0 0 0 1 0 0 0 1 0 0 0 0 1:-0.733333 2:-0.466667 3:-0.466667 4:-0.6 5:-0.733333 6:-0.0666667 7:-0.0666667 8:-0.733333 9:0.2 10:0.466667 11:-0.2 12:0.0666667 13:-0.866667 14:0.0666667 15:-0.333333 16:0.0666667 
0 1 0 0 0 1 1 0 0 0 0 0 0 0 0 1 1 0 0 0 0 1 0 0 0 1:-0.733333 2:-0.466667 3:-0.466667 4:-0.6 5:-0.733333 6:-0.0666667 7:0.0666667 8:-0.733333 9:0.2 10:0.466667 11:-0.0666667 12:-0.0666667 13:-0.866667 14:0.0666667 15:-0.333333 16:-0.2 
0 1 0 0 0 0 1 1 1 0 0 0 0 1 0 1 1 1 0 0 0 1 0 1 1 1:-0.733333 2:-0.466667 3:-0.466667 4:-0.2 5:-0.6 6:0.466667 7:-0.333333 8:-0.6 9:-0.466667 10:0.2 11:-0.6 12:-0.0666667 13:-0.733333 14:-0.0666667 15:-0.2 16:0.0666667 
0 0 0 0 0 0 1 0 0 0 0 0 0 0 0 0 0 0 0 0 1 0 0 0 0 1:-0.733333 2:-0.466667 3:-0.333333 4:-0.6 5:-0.733333 6:0.0666667 7:-0.0666667 8:-0.733333 9:0.2 10:0.6 11:-0.2 12:0.0666667 13:-0.866667 14:0.0666667 15:-0.333333 16:0.0666667 
0 0 0 0 0 0 1 0 0 0 0 0 0 0 0 0 0 0 0 0 1 0 0 1 0 1:-0.733333 2:-0.466667 3:-0.333333 4:-0.6 5:-0.733333 6:-0.0666667 7:-0.0666667 8:-0.733333 9:0.2 10:0.6 11:-0.2 12:0.0666667 13:-0.866667 14:0.0666667 15:-0.333333 16:0.0666667 
0 0 0 0 0 0 1 0 0 0 0 0 0 0 0 0 0 0 0 0 1 0 0 1 0 1:-0.733333 2:-0.466667 3:-0.333333 4:-0.6 5:-0.733333 6:-0.0666667 7:-0.0666667 8:-0.733333 9:0.2 10:0.6 11:-0.2 12:0.0666667 13:-0.866667 14:0.0666667 15:-0.333333 16:0.0666667 
0 0 0 0 0 0 1 0 0 0 0 0 0 0 0 0.4078040568343208 0 0 0 0 0 0 0 0 0 1:-0.733333 2:-0.466667 3:-0.333333 4:-0.6 5:-0.733333 6:-0.0666667 7:0.0666667 8:-0.733333 9:0.2 10:0.6 11:-0.0666667 12:-0.0666667 13:-0.866667 14:0.0666667 15:-0.333333 16:-0.2 
0 1 0 0 0 1 1 1 0 1 0 0 0 0 0 1 1 1 0 1 0 1 0 1 0 1:-0.733333 2:-0.466667 3:-0.333333 4:-0.6 5:-0.733333 6:-0.0666667 7:0.0666667 8:-0.733333 9:0.2 10:0.466667 11:-0.0666667 12:-0.2 13:-0.866667 14:0.0666667 15:-0.333333 16:-0.0666667 
0 1 0 0 0 1 1 0 0 0 0 0 0 0 0 1 0 0 0 0 0 1 0 0 0 1:-0.733333 2:-0.466667 3:-0.333333 4:-0.6 5:-0.733333 6:-0.0666667 7:0.0666667 8:-0.733333 9:0.2 10:0.466667 11:-0.0666667 12:-0.0666667 13:-0.866667 14:0.0666667 15:-0.333333 16:-0.2 
0 1 0 0 0 1 1 1 1 0 1 0 0 1 1 0 1 0 1 0 1 1 1 1 0 1:-0.733333 2:-0.333333 3:-0.733333 4:-0.466667 5:-0.733333 6:-0.0666667 7:-0.0666667 8:-0.333333 9:0.0666667 10:-0.2 11:-0.2 12:0.0666667 13:-0.733333 14:0.0666667 15:-0.0666667 16:0.0666667 
0 1 0 0 0 0 1 1 1 0 1 0 0 1 0 0 0 0 1 0 1 1 0 1 0 1:-0.733333 2:-0.333333 3:-0.6 4:-0.6 5:-0.733333 6:-0.0666667 7:-0.0666667 8:-0.333333 9:0.2 10:-0.2 11:-0.2 12:0.0666667 13:-0.733333 14:0.0666667 15:-0.0666667 16:0.0666667 
0 1 0 0 0 0 1 1 0 0 0 0 0 0 0 0 0 0 0 0 0 1 0 1 0 1:-0.733333 2:-0.333333 3:-0.6 4:-0.6 5:-0.6 6:0.0666667 7:-0.0666667 8:-0.333333 9:0.2 10:-0.2 11:-0.2 12:-0.0666667 13:-0.733333 14:0.0666667 15:-0.0666667 16:0.0666667 
0 1 0 0 0 0 1 0 0 0 0 0 0 0 0 0 0 0 0 0 1 0 0 0 0 1:-0.733333 2:-0.333333 3:-0.6 4:-0.466667 5:-0.733333 6:-0.0666667 7:-0.0666667 8:-0.333333 9:0.2 10:-0.2 11:-0.2 12:0.0666667 13:-0.866667 14:0.0666667 15:-0.0666667 16:0.0666667 
0 1 0 0 0 0 1 1 1 0 0 0 0 1 0 0 0 0 1 0 1 0 0 1 0 1:-0.733333 2:-0.333333 3:-0.6 4:-0.466667 5:-0.733333 6:-0.0666667 7:-0.0666667 8:-0.333333 9:0.2 10:-0.2 11:-0.2 12:0.0666667 13:-0.733333 14:0.0666667 15:-0.0666667 16:0.0666667 
0 1 0 0 0 0 1 1 1 0 0 0 0 1 0 0 0 0 1 0 1 0 0 1 0 1:-0.733333 2:-0.333333 3:-0.6 4:-0.466667 5:-0.733333 6:-0.0666667 7:-0.0666667 8:-0.333333 9:0.2 10:-0.2 11:-0.2 12:0.0666667 13:-0.733333 14:0.0666667 15:-0.0666667 16:0.0666667 
0 1 0 0 0 0 1 1 0 0 0 0 0 0 0 0 0 0 0 0 0 1 0 1 0 1:-0.733333 2:-0.333333 3:-0.6 4:-0.466667 5:-0.6 6:0.0666667 7:-0.0666667 8:-0.333333 9:0.2 10:-0.2 11:-0.2 12:-0.0666667 13:-0.733333 14:0.0666667 15:-0.0666667 16:0.0666667 
0 1 0 0 0 0 1 0 0 0 0 0 0 0 0 1 1 0 0 0 1 0 0 0 0 1:-0.733333 2:-0.333333 3:-0.466667 4:-0.6 5:-0.733333 6:-0.0666667 7:-0.0666667 8:-0.733333 9:0.2 10:0.466667 11:-0.2 12:0.0666667 13:-0.866667 14:0.0666667 15:-0.333333 16:0.0666667 
0 1 0 0 0 1 1 0 0 0 0 0 0 0 0 1 1 0 0 1 1 1 0 0 0 1:-0.733333 2:-0.333333 3:-0.466667 4:-0.6 5:-0.733333 6:-0.0666667 7:0.0666667 8:-0.733333 9:0.2 10:0.466667 11:-0.0666667 12:-0.0666667 13:-0.866667 14:0.0666667 15:-0.333333 16:-0.0666667 
0 1 0 0 0 0 1 0 0 0 0 0 0 0 0 1 1 0 0 0 1 0 0 0 0 1:-0.733333 2:-0.333333 3:-0.466667 4:-0.466667 5:-0.733333 6:-0.0666667 7:-0.0666667 8:-0.733333 9:0.2 10:0.466667 11:-0.2 12:0.0666667 13:-0.866667 14:0.0666667 15:-0.333333 16:0.0666667 
0 0 0 0 0 0 0 0 0 0 0 0 0 0 0 0 0 0 0 0 1 0 0 0 0 1:-0.733333 2:-0.333333 3:-0.466667 4:-0.466667 5:-0.733333 6:-0.0666667 7:0.0666667 8:-0.733333 9:0.2 10:0.466667 11:-0.2 12:0.0666667 13:-0.866667 14:0.0666667 15:-0.2 16:0.0666667 
0 1 0 0 0 0.9740015811008549 1 0 0 0 0 0 0 0 0 1 1 0 0 0 1 0 0 0 0 1:-0.733333 2:-0.333333 3:-0.466667 4:-0.466667 5:-0.733333 6:-0.0666667 7:0.0666667 8:-0.733333 9:0.2 10:0.466667 11:-0.0666667 12:-0.0666667 13:-0.866667 14:0.0666667 15:-0.333333 16:-0.0666667 
0 1 0 0 0 0 1 1 1 0.1842511861755566 1 1 0 1 0 1 1 1 0 0 0 1 0 1 1 1:-0.733333 2:-0.333333 3:-0.466667 4:-0.2 5:-0.466667 6:0.2 7:-0.2 8:-0.333333 9:-0.466667 10:-0.0666667 11:-0.6 12:-0.2 13:-0.733333 14:-0.0666667 15:-0.0666667 16:-0.2 
0 0.450341044208158 0 0 0 0 1 0 0 1 0 0 0 0 0 0 1 0.2537001873197335 0 1 1 0 0 1 0 1:-0.733333 2:-0.333333 3:-0.333333 4:-0.6 5:-0.733333 6:-0.0666667 7:0.0666667 8:-0.733333 9:0.2 10:0.6 11:-0.2 12:0.0666667 13:-0.866667 14:0.2 15:-0.333333 16:0.0666667 
0 0.08966783871837632 0 0 0 0 1 0 0 1 0 0 0 0 0 0 1 1 0 1 1 0 0 1 0 1:-0.733333 2:-0.333333 3:-0.333333 4:-0.6 5:-0.733333 6:-0.0666667 7:0.0666667 8:-0.733333 9:0.2 10:0.6 11:-0.2 12:0.0666667 13:-0.866667 14:0.2 15:-0.333333 16:0.0666667 
0 0 0 0 0 0 1 0 0 0 0 0 0 0 0 0 0 0 0 0 1 0 0 0 0 1:-0.733333 2:-0.333333 3:-0.333333 4:-0.6 5:-0.733333 6:-0.0666667 7:0.0666667 8:-0.733333 9:0.2 10:0.6 11:-0.2 12:0.0666667 13:-0.866667 14:0.2 15:-0.333333 16:-0.0666667 
0 0 0 0 0 0 1 0 0 0 0 0 0 0 0 0 0 0 0 0 0 0 0 1 0 1:-0.733333 2:-0.2 3:-0.6 4:-0.466667 5:-0.6 6:0.0666667 7:-0.0666667 8:-0.333333 9:0.2 10:-0.0666667 11:-0.0666667 12:-0.0666667 13:-0.866667 14:0.0666667 15:-0.0666667 16:0.0666667 
0 0 0 0 0 0 1 0 0 0 0 0 0 0 0 1 1 0 0 0 1 0 0 0 0 1:-0.733333 2:-0.2 3:-0.466667 4:-0.466667 5:-0.733333 6:0.0666667 7:-0.0666667 8:-0.733333 9:0.2 10:0.466667 11:-0.333333 12:0.2 13:-0.866667 14:0.0666667 15:-0.333333 16:0.0666667 
0 0 0 0 0 0 1 0 0 0 0 0 0 0 0 0 0 0 0 0 0 0 0 0 0 1:-0.733333 2:-0.0666667 3:-0.6 4:-0.333333 5:-0.733333 6:0.0666667 7:-0.2 8:-0.333333 9:0.333333 10:-0.0666667 11:-0.2 12:-0.0666667 13:-0.866667 14:-0.0666667 15:0.0666667 16:0.0666667 
0 0 0 0 0 0 1 0 0 0 0 0 0 0 0 0 0 0 0 0 1 0 1 0 0 1:-0.733333 2:-0.0666667 3:-0.6 4:-0.333333 5:-0.6 6:-0.2 7:0.0666667 8:-0.333333 9:0.333333 10:-0.0666667 11:-0.2 12:0.333333 13:-0.866667 14:0.2 15:0.0666667 16:-0.0666667 
0 0 0 0 0 0 1 0 0 0 0 0 0 0 0 0 0 0 0 0 1 0 0 0 0 1:-0.733333 2:-0.0666667 3:-0.6 4:-0.333333 5:-0.6 6:-0.0666667 7:-0.0666667 8:-0.333333 9:0.2 10:-0.0666667 11:-0.2 12:0.0666667 13:-0.866667 14:0.0666667 15:-0.0666667 16:0.0666667 
0 0 0 0 0 0 1 0 1 0 0 0 0 1 0 0 0 0 1 0 1 0 1 0 0 1:-0.733333 2:-0.0666667 3:-0.6 4:-0.333333 5:-0.6 6:-0.0666667 7:0.0666667 8:-0.333333 9:0.0666667 10:-0.0666667 11:-0.2 12:0.333333 13:-0.866667 14:0.2 15:-0.0666667 16:-0.0666667 
0 1 0 0 0 0 1 0 0 0 0 0 0 0 0 0 0 0 0 0 0 0 0 0 0 1:-0.6 2:-0.733333 3:-0.466667 4:-0.466667 5:-0.733333 6:-0.0666667 7:-0.0666667 8:-0.333333 9:0.333333 10:-0.2 11:-0.2 12:0.0666667 13:-0.866667 14:0.0666667 15:-0.0666667 16:0.0666667 
0 1 0 0 0 0 1 0 0 0 0 0 0 0 0 0 0 0 0 0 1 0 0 0 0 1:-0.6 2:-0.733333 3:-0.466667 4:-0.466667 5:-0.6 6:-0.0666667 7:-0.0666667 8:-0.333333 9:0.2 10:-0.2 11:-0.2 12:0.0666667 13:-0.866667 14:0.0666667 15:-0.0666667 16:0.0666667 
0 1 0 0 0 0 1 0 0 0 0 0 0 0 0 0 0 0 0 0 1 0 0 0 0 1:-0.6 2:-0.6 3:-0.466667 4:-0.466667 5:-0.6 6:-0.0666667 7:-0.0666667 8:-0.333333 9:0.333333 10:-0.2 11:-0.2 12:0.0666667 13:-0.733333 14:0.0666667 15:-0.0666667 16:0.0666667 
0 1 0 0 0 0 1 1 1 0 0 0 0 1 0 1 1 1 1 0 0 1 0 1 1 1:-0.6 2:-0.466667 3:-0.466667 4:-0.2 5:-0.6 6:0.466667 7:-0.333333 8:-0.6 9:-0.466667 10:0.2 11:-0.6 12:-0.0666667 13:-0.866667 14:-0.0666667 15:-0.2 16:0.2 
0 0 0 0 0 0 0 0 0 0 0 0 0 0 0 0 0 0 0 0 1 0 0 0 0 1:-0.6 2:-0.466667 3:-0.333333 4:-0.6 5:-0.733333 6:0.0666667 7:-0.2 8:-0.733333 9:0.2 10:0.6 11:-0.333333 12:0.2 13:-0.866667 14:0.0666667 15:-0.333333 16:0.2 
0 1 0 0 0 0 1 0 0 0 0 0 0 0 1 0 1 1 0 1 1 0 0 0 0 1:-0.6 2:-0.466667 3:-0.333333 4:-0.6 5:-0.733333 6:-0.0666667 7:0.0666667 8:-0.733333 9:0.2 10:0.466667 11:-0.2 12:0.0666667 13:-0.866667 14:0.2 15:-0.333333 16:0.0666667 
0 0 0 0 0 0 1 1 1 1 1 1 1 0 0.8288763204703185 1 1 1 0 1 0 1 0 1 1 1:-0.6 2:-0.466667 3:-0.333333 4:-0.2 5:-0.466667 6:0.2 7:-0.0666667 8:-0.333333 9:-0.333333 10:0.2 11:-0.6 12:-0.2 13:-0.733333 14:-0.2 15:-0.2 16:-0.0666667 
0 1 1 0 1 0 1 1 1 1 1 1 1 0 1 1 1 1 1 0 1 1 0 1 1 1:-0.6 2:-0.466667 3:-0.333333 4:-0.2 5:-0.466667 6:0.2 7:-0.0666667 8:-0.333333 9:-0.2 10:0.0666667 11:-0.6 12:-0.0666667 13:-0.6 14:-0.2 15:-0.2 16:0.0666667 
0 1 0 0 0 0 1 0 0 0 0 0 0 0 0 0 0 0 0 0 0 1 0 1 0 1:-0.6 2:-0.333333 3:-0.6 4:-0.6 5:-0.733333 6:0.0666667 7:-0.0666667 8:-0.333333 9:0.333333 10:-0.2 11:-0.2 12:-0.0666667 13:-0.733333 14:0.0666667 15:-0.0666667 16:0.0666667 
0 1 0 0 0 0 1 0 0 0 0 0 0 0 0 0 0 0 0 0 0 1 0 1 0 1:-0.6 2:-0.333333 3:-0.6 4:-0.6 5:-0.733333 6:0.0666667 7:-0.0666667 8:-0.333333 9:0.333333 10:-0.2 11:-0.2 12:-0.0666667 13:-0.733333 14:0.0666667 15:-0.0666667 16:0.0666667 
0 1 0 0 0 1 1 0 0 0 0 0 0 0 0 0 0 0 0 0 1 0 0 0 0 1:-0.6 2:-0.333333 3:-0.466667 4:-0.466667 5:-0.6 6:-0.0666667 7:-0.0666667 8:-0.333333 9:0.333333 10:-0.2 11:-0.2 12:0.0666667 13:-0.733333 14:0.0666667 15:-0.0666667 16:0.0666667 
0 1 0 0 0 0 1 0 0 0 0 0 0 0 0 0 0 0 1 0 1 0 0 1 0 1:-0.6 2:-0.333333 3:-0.466667 4:-0.466667 5:-0.6 6:-0.0666667 7:-0.0666667 8:-0.333333 9:0.2 10:-0.2 11:-0.2 12:0.0666667 13:-0.866667 14:0.0666667 15:-0.0666667 16:0.0666667 
0 0 0 0 0 0 1 0 0 0 0 0 0 0 0 0 0 0 0 0 0 0 0 0 0 1:-0.6 2:0.333333 3:-0.466667 4:0.0666667 5:-0.466667 6:-0.0666667 7:-0.0666667 8:-0.2 9:0.333333 10:-0.2 11:-0.2 12:0.0666667 13:-0.866667 14:0.0666667 15:0.0666667 16:0.0666667 
1 1 0 1 1 1 1 1 1 0 1 0.9050166288506678 0 1 1 1 1 0 1 1 1 0 1 1 0 1:-0.6 2:0.333333 3:-0.466667 4:0.0666667 5:-0.333333 6:-0.2 7:0.0666667 8:-0.333333 9:0.2 10:-0.0666667 11:-0.0666667 12:0.2 13:-0.733333 14:0.2 15:-0.0666667 16:0.0666667 
0 0 0 0 0 0 0 0 0 0 0 0 0 0 0 0 0 0 0 0 1 0 0 0 0 1:-0.6 2:-0.333333 3:-0.333333 4:-0.466667 5:-0.6 6:0.0666667 7:-0.0666667 8:-0.733333 9:0.2 10:0.6 11:-0.2 12:0.2 13:-0.866667 14:0.0666667 15:-0.333333 16:-0.0666667 
0 0 0 0 0 0.7531964118108766 1 0 0 0 0 0 0 0 0 0 0 0 0 0.05609167095742119 1 0 0 0 0 1:-0.6 2:-0.333333 3:-0.333333 4:-0.466667 5:-0.6 6:-0.0666667 7:0.0666667 8:-0.733333 9:0.2 10:0.6 11:-0.2 12:0.0666667 13:-0.866667 14:0.2 15:-0.333333 16:-0.0666667 
0 0 0 0 0 0 0 0 0 0 0 0 0 0 0 1 0 0 0 0 1 0 0 0 0 1:-0.6 2:-0.333333 3:-0.333333 4:-0.466667 5:-0.6 6:-0.0666667 7:0.0666667 8:-0.733333 9:0.2 10:0.6 11:-0.2 12:0.0666667 13:-0.866667 14:0.0666667 15:-0.333333 16:-0.0666667 
0 1 0 0 0 0 1 0 0 0 0 0 0 1 0 1 1 0 0 0 0 0.4297708136774686 0 0 1 1:-0.6 2:-0.333333 3:-0.333333 4:-0.2 5:-0.6 6:0.333333 7:-0.6 8:-0.733333 9:-0.2 10:-0.0666667 11:-0.6 12:-0.2 13:-0.866667 14:0.0666667 15:-0.0666667 16:-0.0666667 
0 1 0 0 0 0 1 1 1 1 1 0 0 1 1 1 1 1 1 1 1 1 0 1 1 1:-0.6 2:-0.333333 3:-0.333333 4:0.0666667 5:-0.6 6:0.466667 7:-0.333333 8:-0.6 9:-0.333333 10:0.333333 11:-0.733333 12:-0.0666667 13:-0.733333 14:-0.0666667 15:-0.333333 16:0.466667 
0 1 0 0 0 0 1 1 1 1 0 0 0 1 1 1 1 1 0 0 0 1 0 1 1 1:-0.6 2:-0.333333 3:-0.333333 4:0.0666667 5:-0.466667 6:0.6 7:-0.466667 8:-0.733333 9:-0.333333 10:0.2 11:-0.6 12:-0.0666667 13:-0.866667 14:0.0666667 15:-0.333333 16:0.333333 
1 1 0 0 0 0 1 1 1 0 1 1 0 1 0 1 1 1 0 0 0 1 0 1 1 1:-0.6 2:-0.333333 3:-0.333333 4:-0.0666667 5:-0.466667 6:0.2 7:-0.333333 8:-0.466667 9:-0.466667 10:-0.0666667 11:-0.6 12:-0.2 13:-0.733333 14:0.0666667 15:-0.0666667 16:-0.2 
0 -0 0 0 0 0 0 0 0 0 0 0 0 0 0 0 0 0 0 0 1 0 0 0 0 1:-0.6 2:-0.333333 3:-0.2 4:-0.466667 5:-0.6 6:-0.0666667 7:0.0666667 8:-0.733333 9:0.333333 10:0.6 11:-0.2 12:0.0666667 13:-0.866667 14:0.2 15:-0.333333 16:-0.0666667 
0 1 0 0 0 0 0 0 0 0 0 0 0 0 0 0 0 0 0 0 0 0 0 0 0 1:-0.6 2:-0.2 3:-0.466667 4:-0.466667 5:-0.733333 6:0.0666667 7:-0.0666667 8:-0.733333 9:0.2 10:0.466667 11:-0.333333 12:0.0666667 13:-0.733333 14:0.0666667 15:-0.2 16:0.0666667 
0 0 0 0 0 1 1 0 0 0 0 0 0 1 0 0 0 0 1 0 1 0 1 0 0 1:-0.6 2:-0.2 3:-0.466667 4:-0.466667 5:-0.6 6:-0.2 7:0.0666667 8:-0.333333 9:0.333333 10:-0.0666667 11:-0.0666667 12:0.333333 13:-0.866667 14:0.2 15:-0.0666667 16:0.0666667 
0 0 0 0 0 0 1 0 0 0 0 0 0 0 0 0 0 0 0 0 0 0 0 0 0 1:-0.6 2:-0.2 3:-0.466667 4:-0.466667 5:-0.6 6:0.0666667 7:-0.0666667 8:-0.333333 9:0.333333 10:-0.0666667 11:-0.333333 12:0.0666667 13:-0.733333 14:0.2 15:0.0666667 16:0.0666667 
0 0 0 0 0 0 1 0 0 0 0 0 0 0 0 0 0 0 0 0 1 0 1 0 0 1:-0.6 2:-0.2 3:-0.466667 4:-0.466667 5:-0.6 6:-0.0666667 7:0.0666667 8:-0.333333 9:0.333333 10:-0.0666667 11:-0.0666667 12:0.2 13:-0.866667 14:0.2 15:-0.0666667 16:0.0666667 
0 0 0 0 0 0 1 0 0 0 0 0 0 0 0 0 0 0 0 0 0 0 0 0 0 1:-0.6 2:0.2 3:-0.466667 4:-0.2 5:-0.6 6:-0.0666667 7:-0.0666667 8:-0.2 9:0.466667 10:-0.2 11:-0.2 12:0.0666667 13:-0.866667 14:0.0666667 15:0.0666667 16:0.0666667 
0 1 0 0 0 0 1 1 1 0 0 0 0 0 0 1 1 0 0 0 0 1 0 1 0 1:-0.6 2:0.2 3:-0.466667 4:-0.0666667 5:-0.466667 6:0.0666667 7:-0.2 8:-0.333333 9:0.2 10:-0.0666667 11:-0.2 12:-0.2 13:-0.733333 14:-0.0666667 15:-0.0666667 16:0.0666667 
0 1 0 0 0 0 1 0 0 0 0 0 0 1 0 0 0 0 0 0 1 0 0 0 0 1:-0.6 2:-0.2 3:-0.333333 4:-0.466667 5:-0.466667 6:-0.2 7:-0.0666667 8:-0.6 9:-0.0666667 10:-0.0666667 11:-0.2 12:0.2 13:-1 14:0.0666667 15:0.0666667 16:-0.0666667 
0 1 0 0 0 0 1 0 0 0 0 0 0 1 0 0 1 0 0 0 1 0 0 0 0 1:-0.6 2:-0.2 3:-0.333333 4:-0.466667 5:-0.333333 6:-0.0666667 7:0.0666667 8:-0.733333 9:-0.0666667 10:-0.0666667 11:-0.2 12:0.0666667 13:-1 14:0.0666667 15:0.0666667 16:0.0666667 
0 1 0 0 0 0 1 0 0 0 0 0 0 1 0 1 1 0 0 0 0 1 0 0 1 1:-0.6 2:-0.2 3:-0.333333 4:0.2 5:-0.466667 6:0.466667 7:-0.6 8:-0.733333 9:-0.2 10:0.0666667 11:-0.733333 12:-0.2 13:-0.866667 14:0.0666667 15:-0.2 16:0.2 
0 0 0 0 0 0 1 0 0 0 0 0 0 0 0 0 0 0 0 0 0 0 0 0 0 1:-0.6 2:0.2 3:-0.333333 4:-0.0666667 5:-0.333333 6:0.0666667 7:-0.2 8:-0.733333 9:-0.0666667 10:0.0666667 11:-0.2 12:0.0666667 13:-0.866667 14:-0.0666667 15:0.466667 16:0.333333 
0 0 0 0 0 1 1 0 0 0 0 0 0 0.7136237393957865 0 0 0 0 0 0 1 0 1 0 0 1:-0.6 2:-0.0666667 3:-0.466667 4:-0.333333 5:-0.6 6:-0.2 7:0.0666667 8:-0.333333 9:0.333333 10:-0.0666667 11:-0.0666667 12:0.333333 13:-0.733333 14:0.2 15:0.0666667 16:0.0666667 
0 1 0 0 1 1 1 0 1 0 0 0 0 1 1 0 0 0 1 0 1 0 1 0 0 1:-0.6 2:-0.0666667 3:-0.466667 4:-0.333333 5:-0.6 6:-0.2 7:0.0666667 8:-0.333333 9:0.2 10:-0.0666667 11:-0.0666667 12:0.333333 13:-0.866667 14:0.2 15:-0.0666667 16:0.0666667 
1 0 0 0 1 1 1 0 0 0 0 0 0 1 0 0 0 0 1 0 1 0 1 0 0 1:-0.6 2:-0.0666667 3:-0.466667 4:-0.333333 5:-0.6 6:-0.2 7:0.0666667 8:-0.333333 9:0.2 10:-0.0666667 11:-0.0666667 12:0.2 13:-0.866667 14:0.2 15:-0.0666667 16:-0.0666667 
1 1 0 0 0.325662535856833 1 1 0 1 0 1 0 0 1 0 0 0 0 1 0 1 0 1 0 0 1:-0.6 2:-0.0666667 3:-0.466667 4:-0.333333 5:-0.6 6:-0.2 7:-0.0666667 8:-0.333333 9:0.2 10:-0.0666667 11:-0.0666667 12:0.2 13:-0.866667 14:0.2 15:-0.0666667 16:0.0666667 
0 0 0 0 0 0 1 0 0 0 0 0 0 1 0 0 0 0 0 0 0 0 0 0 0 1:-0.6 2:-0.0666667 3:-0.466667 4:-0.333333 5:-0.466667 6:-0.2 7:-0.2 8:-0.6 9:-0.0666667 10:-0.0666667 11:-0.2 12:0.333333 13:-0.866667 14:-0.0666667 15:0.333333 16:-0.0666667 
1 0 0 0 0 1 1 1 0 0 0 1 0 0 0 1 1 1 0 1 0 1 0 1 1 1:-0.6 2:-0.0666667 3:-0.466667 4:-0.333333 5:-0.466667 6:0.2 7:0.2 8:-0.333333 9:-0.6 10:-0.0666667 11:-0.333333 12:-0.0666667 13:-0.6 14:0.0666667 15:0.2 16:-0.466667 
0 0 0 0 0 0 1 0 0 0 0 0 0 0 0 0 0 0 0 0 0 0 0 0 0 1:-0.6 2:0.0666667 3:-0.466667 4:-0.2 5:-0.6 6:0.2 7:-0.2 8:-0.333333 9:0.333333 10:-0.0666667 11:-0.333333 12:-0.2 13:-0.866667 14:-0.0666667 15:0.0666667 16:0.0666667 
0 0 0 0 0 0 1 0 0 0 0 0 0 0 0 0 0 0 0 0 0 0 0 0 0 1:-0.6 2:0.0666667 3:-0.466667 4:-0.2 5:-0.6 6:0.2 7:-0.2 8:-0.333333 9:0.333333 10:-0.0666667 11:-0.333333 12:-0.2 13:-0.866667 14:-0.0666667 15:0.0666667 16:0.0666667 
0 0 0 0 0 0 1 0 0 0 0 0 0 0 0 0 0 0 0 0 0 0 0 0 0 1:-0.6 2:0.0666667 3:-0.466667 4:-0.2 5:-0.6 6:-0.0666667 7:-0.0666667 8:-0.2 9:0.333333 10:-0.2 11:-0.2 12:0.0666667 13:-0.866667 14:0.0666667 15:0.0666667 16:0.0666667 
0 0 0 0 0 0 1 0 0 0 0 0 0 1 0 0 0 0 0 0 0 0 0 0 0 1:-0.6 2:0.0666667 3:-0.466667 4:-0.2 5:-0.466667 6:-0.2 7:-0.0666667 8:-0.6 9:-0.0666667 10:0.0666667 11:-0.2 12:0.2 13:-1 14:0.2 15:0.2 16:-0.0666667 
0 0 0 0 0 0 1 0 0 0 0 0 0 0 0 0 0 0 0 0 0.08581397045429233 0 0 0 0 1:-0.6 2:-0.0666667 3:-0.333333 4:-0.333333 5:-0.733333 6:0.2 7:-0.333333 8:-0.6 9:0.2 10:0.466667 11:-0.466667 12:0.2 13:-0.733333 14:-0.0666667 15:-0.2 16:0.2 
0 0 0 0 0 0 1 0 0 0 0 0 0 0 0 0 0 0 0 0 0 0 0 0 0 1:-0.6 2:-0.0666667 3:-0.333333 4:-0.333333 5:-0.733333 6:0.2 7:-0.2 8:-0.6 9:0.2 10:0.466667 11:-0.6 12:0.2 13:-0.866667 14:-0.0666667 15:-0.2 16:0.2 
0 0 0 0 0 0 0 0 0 0 0 0 0 0 0 0 0 0 0 0 1 0 0 0 0 1:-0.6 2:-0.0666667 3:-0.333333 4:-0.333333 5:-0.733333 6:0.0666667 7:-0.0666667 8:-0.733333 9:0.333333 10:0.466667 11:-0.333333 12:0.2 13:-0.866667 14:0.0666667 15:-0.2 16:0.2 
0 0 0 0 0 0 0.4174124795201257 0 0 0 0 0 0 1 1 0 0 0 0 0 1 0 1 0 0 1:-0.6 2:-0.0666667 3:-0.333333 4:-0.333333 5:-0.6 6:0.0666667 7:-0.0666667 8:-0.733333 9:0.2 10:0.466667 11:-0.333333 12:0.333333 13:-0.866667 14:0.2 15:-0.2 16:0.333333 
0 0 0 0 0 0 1 0 0 0 0 0 0 0 0 0 0 0 0 0 0 0 0 0 0 1:-0.6 2:-0.0666667 3:-0.333333 4:-0.333333 5:-0.6 6:0.0666667 7:-0.0666667 8:-0.733333 9:0.2 10:0.466667 11:-0.333333 12:-0.0666667 13:-0.866667 14:-0.0666667 15:-0.2 16:0.0666667 
0 1 0 0 0 0 1 0 0 0 0 0 0 0 0 0 0 0 0 0 0 0 0 0 0 1:-0.6 2:-0.0666667 3:-0.333333 4:-0.333333 5:-0.466667 6:-0.0666667 7:-0.0666667 8:-0.733333 9:-0.0666667 10:-0.0666667 11:-0.2 12:0.0666667 13:-1 14:0.2 15:0.2 16:-0.0666667 
0 0 0 0 0 0 1 0 0 0 0 0 0 0 0 0 0 0 0 0 0 0 0 0 0 1:-0.6 2:-0.0666667 3:-0.333333 4:-0.333333 5:-0.466667 6:0.0666667 7:0.0666667 8:-0.6 9:-0.0666667 10:-0.0666667 11:-0.2 12:0.0666667 13:-0.866667 14:0.0666667 15:0.333333 16:0.2 
1 1 1 1 1 1 1 1 1 1 1 1 1 1 0.3989054781849211 1 1 1 1 1 0 1 0 1 1 1:-0.6 2:-0.0666667 3:-0.333333 4:-0.333333 5:-0.333333 6:0.0666667 7:0.0666667 8:-0.2 9:-0.6 10:-0.2 11:-0.466667 12:-0.2 13:-0.6 14:0.2 15:0.0666667 16:-0.6 
0 0 0 0 0 1 1 0 0 0 0 0 0 0 0 1 1 0 0 1 0 0 0 0 0 1:-0.6 2:0.0666667 3:-0.333333 4:-0.2 5:-0.6 6:-0.0666667 7:0.2 8:-0.733333 9:0.2 10:0.466667 11:-0.0666667 12:-0.0666667 13:-0.866667 14:0.2 15:-0.2 16:-0.2 
0 0 0 0 0 0 0 0 0 0 0 0 0 0 0 0 0.2717887035124974 0 0 0 1 0 0 0 0 1:-0.6 2:0.0666667 3:-0.333333 4:-0.2 5:-0.6 6:0.0666667 7:-0.0666667 8:-0.733333 9:0.2 10:0.466667 11:-0.333333 12:0.2 13:-0.866667 14:0.0666667 15:-0.2 16:0.0666667 
0 1 0 0 0 0 0 0 0 0 0 0 0 0 0 1 1 0 0 0 1 0 0 0 0 1:-0.6 2:0.0666667 3:-0.333333 4:-0.2 5:-0.6 6:0.0666667 7:-0.0666667 8:-0.733333 9:0.2 10:0.466667 11:-0.2 12:0.0666667 13:-0.733333 14:0.0666667 15:-0.2 16:0.0666667 
1 0.2990608390448733 0.3937347937600405 1 1 1 1 0 1 1 1 0 0 1 1 1 1 1 1 1 1 0 1 1 0.6085702265271156 1:-0.466667 2:0.466667 3:-0.333333 4:0.0666667 5:-0.2 6:-0.2 7:0.0666667 8:-0.333333 9:0.0666667 10:0.0666667 11:0.0666667 12:0.2 13:-0.866667 14:0.333333 15:-0.0666667 16:0.0666667 
0 1 1 0.2746537391393566 1 0 1 1 1 1 1 1 1 1 1 1 1 1 1 1 1 1 1 1 1 1:-0.466667 2:-0.466667 3:-0.2 4:-0.2 5:-0.6 6:0.6 7:-0.466667 8:-0.466667 9:-0.466667 10:0.466667 11:-0.733333 12:0.2 13:-0.733333 14:-0.0666667 15:-0.466667 16:0.466667 
0 1 0 0 0 0 1 0 0 0 0 0 0 1 0 0 1 0 0 0 0 0 0 0 0 1:-0.466667 2:0.466667 3:-0.2 4:0.0666667 5:-0.0666667 6:0.0666667 7:-0.0666667 8:-0.733333 9:0.0666667 10:-0.0666667 11:-0.2 12:0.0666667 13:-1 14:0.0666667 15:0.2 16:0.0666667 
0 0 0 0 0 0 1 0 0 0 0 0 0 0 0 0 0 0 0 0 0 0 0 0 0 1:-0.466667 2:0.466667 3:-0.2 4:0.0666667 5:-0.0666667 6:0.0666667 7:-0.0666667 8:-0.6 9:0.2 10:-0.0666667 11:-0.2 12:-0.0666667 13:-0.866667 14:-0.0666667 15:0.466667 16:0.2 
0 0 0 0 0 1 1 0 1 0 0 0 0 1 0 0 1 0 1 0 1 0 1 0 0 1:-0.466667 2:0.333333 3:-0.466667 4:-0.0666667 5:-0.333333 6:-0.2 7:0.0666667 8:-0.333333 9:0.2 10:0.0666667 11:-0.0666667 12:0.333333 13:-0.866667 14:0.2 15:-0.0666667 16:0.0666667 
0 0 0 0 0 0 1 1 1 0 1 0 0.7278372940985283 1 1 1 1 1 1 0 1 1 0 1 1 1:-0.466667 2:-0.333333 3:-0.333333 4:-0.0666667 5:-0.466667 6:0.466667 7:-0.333333 8:-0.466667 9:-0.333333 10:0.333333 11:-0.6 12:0.2 13:-0.733333 14:-0.2 15:-0.2 16:0.333333 
0 0 0 0 0 1 1 0 1 0 0 0 0 1 0 0 0 0 1 0 1 0 1 0 0 1:-0.466667 2:0.333333 3:-0.333333 4:0.0666667 5:-0.466667 6:-0.2 7:0.0666667 8:-0.2 9:0.333333 10:-0.0666667 11:-0.0666667 12:0.333333 13:-0.866667 14:0.2 15:0.0666667 16:0.0666667 
0 0 0 0 0 0 1 0 0 0 0 0 0 0 0 0 0 0 0 0 0 0 0 0 0 1:-0.466667 2:0.333333 3:-0.333333 4:-0.0666667 5:-0.466667 6:-0.0666667 7:0.0666667 8:-0.2 9:0.466667 10:-0.0666667 11:-0.2 12:0.2 13:-0.866667 14:0.2 15:0.0666667 16:-0.0666667 
0 0 0 0 0 1 1 0 0 0 0 0 0 1 0 0 1 0 0 0 1 0 1 0 0 1:-0.466667 2:0.333333 3:-0.333333 4:-0.0666667 5:-0.333333 6:-0.0666667 7:0.0666667 8:-0.333333 9:0.2 10:-0.0666667 11:-0.2 12:0.2 13:-0.866667 14:0.2 15:-0.0666667 16:-0.0666667 
0 0 0 0 0 0 1 0 0 0 0 0 0 0 0 0 0 0 0 0 0 0 0 0 0 1:-0.466667 2:0.333333 3:-0.333333 4:0.0666667 5:-0.333333 6:0.0666667 7:-0.0666667 8:-0.2 9:0.333333 10:-0.0666667 11:-0.333333 12:-0.0666667 13:-0.866667 14:-0.0666667 15:0.0666667 16:0.0666667 
0 1 0 0 0 0 1 1 1 0 1 0 1 1 1 1 1 1 1 0 1 1 0 1 1 1:-0.466667 2:-0.333333 3:-0.2 4:-0.0666667 5:-0.466667 6:0.466667 7:-0.466667 8:-0.466667 9:-0.333333 10:0.333333 11:-0.6 12:0.2 13:-0.733333 14:-0.0666667 15:-0.2 16:0.333333 
0 1 1 0 1 0 1 1 1 1 1 1 1 1 1 1 1 1 1 0.6107625637672677 1 1 0 1 1 1:-0.466667 2:-0.333333 3:-0.2 4:-0.0666667 5:-0.466667 6:0.466667 7:-0.333333 8:-0.466667 9:-0.466667 10:0.2 11:-0.6 12:0.0666667 13:-0.733333 14:-0.2 15:-0.333333 16:0.2 
1 1 0 0 0 1 1 0 0 0.3194129272772179 0 0 0 0 0 0 1 0 0 1 0.1614643579276358 0 0 0 0 1:-0.466667 2:0.333333 3:-0.2 4:0.0666667 5:-0.466667 6:-0.2 7:0.2 8:-0.733333 9:0.2 10:0.466667 11:0.0666667 12:-0.0666667 13:-0.733333 14:0.333333 15:-0.0666667 16:-0.2 
0 1 0 0 0 0 1 1 0 1 0 0 0 1 1 1 1 1 0 0 0 1 0 1 1 1:-0.466667 2:-0.333333 3:-0.2 4:0.0666667 5:-0.333333 6:0.466667 7:-0.466667 8:-0.733333 9:-0.333333 10:0.0666667 11:-0.6 12:-0.2 13:-0.866667 14:0.0666667 15:-0.2 16:0.2 
1 1 1 1 1 0.7938860895160794 1 1 1 1 1 1 1 1 1 1 1 1 0 1 0 1 0 1 1 1:-0.466667 2:-0.333333 3:-0.2 4:-0.0666667 5:-0.333333 6:0.333333 7:-0.333333 8:-0.6 9:-0.333333 10:-0.0666667 11:-0.6 12:-0.2 13:-0.6 14:-0.0666667 15:-0.2 16:-0.0666667 
0 1 0 0 0 0 1 0 0 0 0 0 0 0 0 0 0 0 0 0 0 0 0 0 0 1:-0.466667 2:0.333333 3:-0.2 4:-0.0666667 5:-0.2 6:0.0666667 7:0.0666667 8:-0.733333 9:0.0666667 10:-0.0666667 11:-0.0666667 12:-0.0666667 13:-0.866667 14:0.0666667 15:0.333333 16:0.0666667 
0 0 0 0 0 1 1 0 1 0 0 0 0 0 0 0 0 0 1 0 1 0 1 0 0 1:-0.466667 2:0.2 3:-0.466667 4:-0.2 5:-0.6 6:-0.2 7:0.0666667 8:-0.2 9:0.333333 10:-0.0666667 11:-0.0666667 12:0.333333 13:-0.866667 14:0.2 15:0.0666667 16:0.0666667 
0 0 0 0 0 0 1 0 0 0 0 0 0 0 0 0 0 0 0 0 0 0 0 0 0 1:-0.466667 2:0.2 3:-0.466667 4:-0.2 5:-0.6 6:-0.0666667 7:0.333333 8:-0.6 9:0.466667 10:0.0666667 11:-0.2 12:-0.0666667 13:-1 14:0.0666667 15:-0.0666667 16:-0.0666667 
0 1 0 0 0 0 1 1 1 0 0 0 0 1 1 1 0 0 1 0 1 1 0 1 0 1:-0.466667 2:-0.2 3:-0.333333 4:-0.466667 5:-0.6 6:0.2 7:-0.333333 8:-0.6 9:0.0666667 10:0.466667 11:-0.466667 12:0.2 13:-0.733333 14:-0.0666667 15:-0.2 16:0.333333 
1 1 0 1 1 1 1 0 0 1 0 1 0 0 0 1 1 1 0 1 1 1 0 1 0 1:-0.466667 2:-0.2 3:-0.333333 4:-0.466667 5:-0.6 6:-0.2 7:0.2 8:-0.6 9:0.0666667 10:0.466667 11:0.2 12:-0.2 13:-0.733333 14:0.2 15:-0.2 16:-0.333333 
0 0 0 0 0 0 0 0 0 0 0 0 0 0 0 0 0 0 0 0 1 0 0 0 0 1:-0.466667 2:-0.2 3:-0.333333 4:-0.466667 5:-0.6 6:0.0666667 7:-0.2 8:-0.733333 9:0.333333 10:0.6 11:-0.333333 12:0.333333 13:-0.866667 14:0.2 15:-0.2 16:0.2 
0 0 0 0 0 0 1 0 0 0 0 0 0 0 0 0 0 0 0 0 1 0 0 0 0 1:-0.466667 2:-0.2 3:-0.333333 4:-0.466667 5:-0.6 6:-0.0666667 7:-0.0666667 8:-0.733333 9:0.2 10:0.466667 11:-0.2 12:0.0666667 13:-0.866667 14:0.2 15:-0.2 16:0.0666667 
1 0 0 0 0 1 1 0 0 0 0 0 0 0 0 0 0 0 0 0 0 0 0 0 0 1:-0.466667 2:-0.2 3:-0.333333 4:-0.466667 5:-0.6 6:-0.0666667 7:0.0666667 8:-0.733333 9:0.2 10:0.466667 11:0.0666667 12:-0.2 13:-0.866667 14:0.0666667 15:-0.2 16:-0.2 
1 1 1 1 1 1 1 1 0 1 1 1 1 0 1 1 1 1 0.2568492786697329 1 0 1 0 1 1 1:-0.466667 2:-0.2 3:-0.333333 4:-0.466667 5:-0.466667 6:0.2 7:0.2 8:-0.333333 9:-0.466667 10:-0.2 11:-0.333333 12:-0.0666667 13:-0.6 14:0.0666667 15:0.0666667 16:-0.466667 
0 1 0 0 0 1 1 0 1 0 0 0 0 1 0 0 0 0 1 0 1 0 0 1 0 1:-0.466667 2:0.2 3:-0.333333 4:-0.2 5:-0.333333 6:-0.0666667 7:-0.0666667 8:-0.333333 9:0.2 10:-0.0666667 11:-0.2 12:0.0666667 13:-0.866667 14:0.0666667 15:-0.0666667 16:0.0666667 
1 0 1 1 0 1 1 1 1 1 0 0.4132851938552948 1 1 0 1 0 1 1 1 1 1 1 1 1 1:-0.466667 2:0.2 3:-0.333333 4:-0.0666667 5:-0.333333 6:0.2 7:0.2 8:-0.2 9:-0.466667 10:-0.0666667 11:-0.333333 12:0.0666667 13:-0.466667 14:0.2 15:0.333333 16:-0.2 
0 0 0 0 0 0 1 0.7510050571183462 0 0 0 0 0 0 0 1 1 0 0 0 0 1 0 1 0 1:-0.466667 2:0.2 3:-0.333333 4:-0.0666667 5:-0.333333 6:0.0666667 7:-0.0666667 8:-0.333333 9:0.2 10:-0.0666667 11:-0.333333 12:-0.0666667 13:-0.866667 14:-0.0666667 15:-0.0666667 16:0.0666667 
0 1 0 0 0 1 1 0 1 0 0 0 0 0 0 0 1 0 0 0 1 0 1 1 0 1:-0.466667 2:0.2 3:-0.333333 4:-0.0666667 5:-0.333333 6:-0.0666667 7:0.0666667 8:-0.333333 9:0.2 10:-0.0666667 11:-0.0666667 12:0.0666667 13:-0.866667 14:0.0666667 15:-0.0666667 16:0.0666667 
1 0 0 0 1 1 1 0 0 1 0 0 0 0 0 0 0 0 0 1 0 0 0 0 0 1:-0.466667 2:-0.2 3:-0.2 4:-0.466667 5:-0.6 6:-0.2 7:0.2 8:-0.6 9:0.2 10:0.466667 11:0.2 12:-0.2 13:-0.866667 14:0.2 15:-0.2 16:-0.333333 
1 0 0 0 0 1 1 0 0 1 0 0 0 0 0 0 0 0 0 1 0 1 0 1 0 1:-0.466667 2:-0.2 3:-0.2 4:-0.466667 5:-0.6 6:-0.2 7:0.2 8:-0.6 9:0.2 10:0.466667 11:0.0666667 12:-0.2 13:-0.866667 14:0.2 15:-0.2 16:-0.2 
0 1 0 0 0 0 1 0 0 0 0 0 0 1 1 0 0.08441629706360931 0 0 0 1 0 0 0 0 1:-0.466667 2:-0.2 3:-0.2 4:-0.466667 5:-0.6 6:0.0666667 7:-0.2 8:-0.733333 9:0.2 10:0.466667 11:-0.333333 12:0.2 13:-0.866667 14:0.0666667 15:-0.333333 16:0.2 
1 1 0 0 0 1 1 1 0 1 0 0 0 0 1 1 1 1 0 1 1 0 1 0.840991426619499 0 1:-0.466667 2:-0.2 3:-0.2 4:-0.466667 5:-0.6 6:-0.0666667 7:0.0666667 8:-0.733333 9:0.0666667 10:0.466667 11:-0.0666667 12:0.0666667 13:-0.866667 14:0.2 15:-0.333333 16:-0.0666667 
0 1 0 1 0 1 1 1 1 0 1 0 0.1266781880296565 0 1 1 0 1 1 1 1 1 1 1 1 1:-0.466667 2:-0.2 3:-0.2 4:-0.466667 5:-0.466667 6:0.2 7:0.466667 8:-0.2 9:-0.333333 10:-0.2 11:-0.333333 12:0.2 13:-0.6 14:0.0666667 15:0.2 16:-0.2 
1 1 1 1 1 1 1 1 1 1 1 1 1 1 1 1 1 1 1 1 1 1 1 1 1 1:-0.466667 2:-0.2 3:-0.2 4:-0.466667 5:-0.466667 6:0.2 7:0.333333 8:-0.333333 9:-0.333333 10:-0.2 11:-0.333333 12:-0.0666667 13:-0.6 14:0.0666667 15:-0.2 16:-0.333333 
1 1 0 1 0 1 1 1 0 1 0.5290091903237769 1 0 0 0 1 0 1 0 1 0 1 0 1 1 1:-0.466667 2:-0.2 3:-0.2 4:-0.466667 5:-0.466667 6:0.2 7:0.2 8:-0.333333 9:-0.466667 10:-0.0666667 11:-0.333333 12:-0.0666667 13:-0.6 14:0.0666667 15:0.2 16:-0.333333 
0 0 0 0 0 0 1 0 0 0 0 0 0 0 0 1 0 1 0 0 1 0 0 1 0 1:-0.466667 2:-0.2 3:-0.2 4:-0.466667 5:-0.466667 6:0.0666667 7:-0.0666667 8:-0.733333 9:0.2 10:0.6 11:-0.2 12:0.0666667 13:-0.866667 14:0.0666667 15:-0.333333 16:0.0666667 
0 0 0 0 0 1 1 0 0 1 0 0 0 0 0 0 0 1 0 1 1 0 0 0 0 1:-0.466667 2:-0.2 3:-0.2 4:-0.466667 5:-0.466667 6:-0.0666667 7:0.0666667 8:-0.733333 9:0.0666667 10:0.6 11:-0.0666667 12:0.0666667 13:-0.866667 14:0.2 15:-0.2 16:-0.0666667 
0 0 0 0 0 0 0 0 0 0 0 0 0 0 0 0 0 0 0 0 1 0 0 0 0 1:-0.466667 2:0.2 3:-0.2 4:-0.2 5:-0.6 6:-0.0666667 7:0.0666667 8:-0.733333 9:0.333333 10:0.466667 11:-0.0666667 12:0.2 13:-0.866667 14:0.2 15:-0.2 16:0.0666667 
0 0 0 0 0 0 0 0 0 0 0 0 0 0 0 0 0 0 0 0 1 0 0 0 0 1:-0.466667 2:0.2 3:-0.2 4:-0.2 5:-0.466667 6:-0.0666667 7:0.0666667 8:-0.733333 9:0.333333 10:0.6 11:-0.0666667 12:0.0666667 13:-0.866667 14:0.2 15:-0.2 16:0.0666667 
0 0 0 0 0 0 1 0 0 0 0 0 0 0 0 0 1 0 0 0 1 0 0 0 0 1:-0.466667 2:0.2 3:-0.2 4:-0.2 5:-0.466667 6:0.0666667 7:-0.0666667 8:-0.733333 9:0.2 10:0.466667 11:-0.333333 12:0.2 13:-0.866667 14:0.0666667 15:-0.2 16:0.0666667 
0 0 0 0 0 0 1 0 0 0 0 0 0 0 0 0 0 0 0 0 0 0 0 0 0 1:-0.466667 2:0.2 3:-0.2 4:-0.2 5:-0.2 6:-0.0666667 7:-0.0666667 8:-0.6 9:0.0666667 10:0.0666667 11:-0.2 12:0.2 13:-0.866667 14:0.0666667 15:0.466667 16:-0.0666667 
0 1 0 0 0 0 1 1 1 0 0 0 0 0 0 1 1 1 0.8746414834714723 0 0 1 0 1 0 1:-0.466667 2:-0.2 3:-0.2 4:0.0666667 5:-0.466667 6:0.733333 7:-0.466667 8:-0.6 9:-0.0666667 10:0.333333 11:-0.733333 12:-0.0666667 13:-0.733333 14:-0.0666667 15:-0.333333 16:0.6 
0 1 0 0 0 0 1 1 1 1 1 0 1 1 1 1 1 1 1 1 1 1 0 1 1 1:-0.466667 2:-0.2 3:-0.2 4:0.0666667 5:-0.466667 6:0.466667 7:-0.466667 8:-0.6 9:-0.333333 10:0.333333 11:-0.733333 12:0.0666667 13:-0.733333 14:-0.0666667 15:-0.333333 16:0.466667 
0 0 0 0 0 0 0 0 0 0 0 0 0 1 0 0 0 0 0 0 1 0 0 0 0 1:-0.466667 2:0.2 3:-0.2 4:-0.0666667 5:-0.466667 6:0.0666667 7:-0.333333 8:-0.733333 9:0.2 10:0.466667 11:-0.466667 12:0.333333 13:-0.733333 14:-0.0666667 15:-0.0666667 16:0.2 
0 0 0 0 0 1 1 0 0 0 0 0 0 0 0 1 1 0 0 1 0 0 0 0 0 1:-0.466667 2:0.2 3:-0.2 4:-0.0666667 5:-0.466667 6:-0.0666667 7:0.2 8:-0.733333 9:0.2 10:0.466667 11:-0.0666667 12:-0.2 13:-0.866667 14:-0.0666667 15:-0.2 16:-0.2 
0 0 0 0 0 0 1 0 0 0 0 0 0 0 0 0 0 0 0 0 0 0 0 0 0 1:-0.466667 2:0.2 3:-0.2 4:-0.0666667 5:-0.2 6:-0.0666667 7:0.2 8:-0.6 9:0.0666667 10:-0.0666667 11:-0.2 12:0.0666667 13:-0.733333 14:0.333333 15:0.733333 16:-0.2 
0 0 0 0 0 0 1 0 0 0 0 0 0 1 0 0 0 0 0 0 0 0 0 0 0 1:-0.466667 2:0.2 3:-0.2 4:-0.0666667 5:-0.2 6:-0.0666667 7:-0.0666667 8:-0.6 9:-0.0666667 10:-0.0666667 11:-0.2 12:0.2 13:-1 14:0.0666667 15:0.2 16:-0.0666667 
0 1 0 0 0 0 1 0 0 0 0 0 0 0 0 0 0 0 0 0 0 0 0 0 0 1:-0.466667 2:0.2 3:-0.2 4:-0.0666667 5:-0.0666667 6:0.0666667 7:-0.0666667 8:-0.733333 9:0.0666667 10:-0.0666667 11:-0.2 12:0.0666667 13:-1 14:0.0666667 15:0.2 16:0.0666667 
0 0 0 0 0 0 1 0 0 0 0 0 0 0 0 0 0 0 0 0 0 0 0 0 0 1:-0.466667 2:-0.0666667 3:-0.466667 4:-0.333333 5:-0.6 6:-0.0666667 7:-0.0666667 8:-0.333333 9:0.466667 10:-0.0666667 11:-0.2 12:0.2 13:-0.866667 14:0.0666667 15:0.0666667 16:0.0666667 
0 0 0 0 0 1 1 0 1 0 0 0 0 0 0 0 0 0 1 0 1 0 1 0 0 1:-0.466667 2:-0.0666667 3:-0.466667 4:-0.333333 5:-0.466667 6:-0.0666667 7:0.0666667 8:-0.333333 9:0.2 10:-0.0666667 11:-0.0666667 12:0.2 13:-0.866667 14:0.2 15:-0.0666667 16:0.0666667 
0 0 0 0 0 0 1 0 0 0 0 0 0 0 0 0 0 0 0 0 1 0 0 0 0 1:-0.466667 2:-0.0666667 3:-0.333333 4:-0.333333 5:-0.6 6:-0.0666667 7:0.0666667 8:-0.733333 9:0.2 10:0.466667 11:-0.0666667 12:0.0666667 13:-0.866667 14:0.0666667 15:-0.2 16:-0.0666667 
0 0 0 0.9652111126725555 0 0 1 1 1 1 0 0 0 0 0 1 0 1 1 1 1 1 1 1 0 1:-0.466667 2:-0.0666667 3:-0.333333 4:-0.333333 5:-0.466667 6:0.2 7:0.2 8:-0.2 9:-0.466667 10:-0.0666667 11:-0.333333 12:0.0666667 13:-0.6 14:0.2 15:0.333333 16:-0.0666667 
1 1 0 1 1 1 1 1 1 1 1 1 0.5897234327145553 1 0 1 1 1 1 1 0 1 0 1 1 1:-0.466667 2:-0.0666667 3:-0.333333 4:-0.333333 5:-0.466667 6:0.2 7:-0.0666667 8:-0.333333 9:-0.6 10:-0.0666667 11:-0.333333 12:-0.0666667 13:-0.6 14:0.0666667 15:0.2 16:-0.333333 
1 1 1 1 1 1 1 1 1 1 1 1 1 1 1 1 1 1 1 1 0 1 0 1 1 1:-0.466667 2:-0.0666667 3:-0.333333 4:-0.333333 5:-0.466667 6:0.2 7:0.0666667 8:-0.333333 9:-0.6 10:-0.0666667 11:-0.333333 12:-0.0666667 13:-0.6 14:-0.0666667 15:0.0666667 16:-0.466667 
0 1 0 0 0 0 1 0 0 0 0 0 0 1 0 0 0 0 0 0 0 0 0 0 0 1:-0.466667 2:-0.0666667 3:-0.333333 4:-0.333333 5:-0.333333 6:-0.0666667 7:-0.2 8:-0.733333 9:-0.0666667 10:-0.0666667 11:-0.2 12:0.2 13:-0.866667 14:-0.0666667 15:0.333333 16:0.0666667 
0 1 0 0 0 0 1 0 0 0 0 0 0 0 0 0 0 0 0 0 0 0 0 0 0 1:-0.466667 2:-0.0666667 3:-0.333333 4:-0.333333 5:-0.333333 6:0.0666667 7:0.0666667 8:-0.733333 9:-0.0666667 10:-0.0666667 11:-0.2 12:0.0666667 13:-1 14:0.2 15:0.2 16:0.2 
0 0 0 0 0 0 1 0 0 0 0 0 0 0 0 0 0 0 1 0 1 0 1 0 0 1:-0.466667 2:0.0666667 3:-0.333333 4:-0.2 5:-0.6 6:-0.2 7:0.0666667 8:-0.2 9:0.466667 10:-0.0666667 11:-0.0666667 12:0.333333 13:-0.866667 14:0.2 15:0.0666667 16:0.0666667 
0 1 0 0 0 0 0 0 0 0 0 0 0 0 0 0 0 0 0 0 1 0 0 0 0 1:-0.466667 2:0.0666667 3:-0.333333 4:-0.2 5:-0.6 6:0.0666667 7:-0.2 8:-0.733333 9:0.333333 10:0.466667 11:-0.466667 12:0.2 13:-0.733333 14:0.0666667 15:-0.2 16:0.2 
0 0 0 0 0 0 1 1 1 0 0 0 0 0 0 1 0 0 1 1 1 1 0 1 0 1:-0.466667 2:0.0666667 3:-0.333333 4:-0.2 5:-0.466667 6:0.2 7:0.2 8:-0.2 9:-0.466667 10:-0.0666667 11:-0.333333 12:0.0666667 13:-0.6 14:0.0666667 15:0.333333 16:-0.0666667 
0 1 0 0 0 0 1 0 0 0 0 0 0 1 0.8536399057812137 1 1 0 0 0 1 0 0 0 0 1:-0.466667 2:0.0666667 3:-0.333333 4:-0.2 5:-0.466667 6:0.0666667 7:-0.2 8:-0.733333 9:0.2 10:0.466667 11:-0.333333 12:0.2 13:-0.866667 14:0.0666667 15:-0.333333 16:0.2 
0 1 0 0 0 0 0 0 0 0 0 0 0 1 1 0 0 0 0 0 1 0 0 0 0 1:-0.466667 2:0.0666667 3:-0.333333 4:-0.2 5:-0.466667 6:0.0666667 7:-0.2 8:-0.733333 9:0.2 10:0.466667 11:-0.333333 12:0.2 13:-0.733333 14:0.0666667 15:-0.2 16:0.2 
0 0 0 0 0 1 1 0 0 0 0 0 0 0 0 0 1 0 0 0 1 0 0 0 0 1:-0.466667 2:0.0666667 3:-0.333333 4:-0.2 5:-0.466667 6:-0.0666667 7:0.0666667 8:-0.733333 9:0.2 10:0.466667 11:-0.0666667 12:0.0666667 13:-0.866667 14:0.2 15:-0.2 16:-0.0666667 
1 1 1 1 1 1 1 1 1 1 1 1 1 1 1 1 1 1 1 1 1 1 1 1 1 1:-0.466667 2:0.0666667 3:-0.333333 4:-0.2 5:-0.333333 6:0.0666667 7:0.466667 8:-0.2 9:-0.333333 10:-0.2 11:-0.333333 12:-0.0666667 13:-0.6 14:0.2 15:-0.2 16:-0.466667 
1 1 1 1 1 1 1 1 0 1 1 1 1 0 0 1 1 1 0 1 0 1 0 1 1 1:-0.466667 2:0.0666667 3:-0.333333 4:-0.2 5:-0.333333 6:0.0666667 7:0.333333 8:-0.333333 9:-0.466667 10:-0.2 11:-0.333333 12:-0.2 13:-0.6 14:0.0666667 15:0.0666667 16:-0.6 
0 0 0 0 0 0 1 0 0 0 0 0 0 0 0 0 0 0 0 0 0 0 0 0 0 1:-0.466667 2:0.0666667 3:-0.333333 4:-0.2 5:-0.333333 6:0.0666667 7:0.0666667 8:-0.6 9:-0.0666667 10:-0.0666667 11:-0.2 12:-0.0666667 13:-0.866667 14:0.2 15:0.333333 16:0.0666667 
0 0 0 0 0 0 1 0 0 0 0 0 0 0 0 0 0 0 0 0 0 0 0 0 0 1:-0.466667 2:0.0666667 3:-0.333333 4:-0.2 5:-0.333333 6:0.0666667 7:0.0666667 8:-0.6 9:0.0666667 10:-0.0666667 11:-0.0666667 12:-0.0666667 13:-1 14:0.0666667 15:0.466667 16:0.0666667 
1 0 0 0 0 1 1 0 0 0 0 0 0 0 0 0 0 0 0 1 1 0 0 0 0 1:-0.466667 2:-0.0666667 3:-0.2 4:-0.333333 5:-0.6 6:-0.2 7:0.2 8:-0.6 9:0.2 10:0.6 11:0.2 12:-0.0666667 13:-0.866667 14:0.2 15:-0.2 16:-0.333333 
1 1 0 0 0 1 1 0 0 1 0 0 0 0 0 0 1 0 0 1 0 0 0 0 0 1:-0.466667 2:-0.0666667 3:-0.2 4:-0.333333 5:-0.466667 6:-0.2 7:0.2 8:-0.733333 9:0.2 10:0.466667 11:0.0666667 12:-0.2 13:-0.866667 14:0.0666667 15:-0.2 16:-0.2 
0 1 0 0 0 0 1 1 1 0 0 0 0 1 1 1 0 1 0 0 1 0 0 1 0 1:-0.466667 2:-0.0666667 3:-0.2 4:-0.333333 5:-0.466667 6:0.2 7:-0.2 8:-0.733333 9:0.0666667 10:0.466667 11:-0.466667 12:0.333333 13:-0.733333 14:-0.0666667 15:-0.2 16:0.333333 
1 0 0 0 0 1 1 0 0 1 0 0 0 0 0 1 0.3283095308751916 0 0 1 0 1 0 0 0 1:-0.466667 2:-0.0666667 3:-0.2 4:-0.333333 5:-0.466667 6:-0.0666667 7:0.2 8:-0.733333 9:0.2 10:0.466667 11:0.0666667 12:-0.333333 13:-0.866667 14:0.0666667 15:-0.2 16:-0.333333 
1 1 0.3582041968574601 1 1 1 1 1 0 1 0 1 0 0 0 1 0.1435319925734529 1 0 1 0 1 0 1 1 1:-0.466667 2:-0.0666667 3:-0.2 4:-0.333333 5:-0.333333 6:0.2 7:0.2 8:-0.333333 9:-0.466667 10:-0.2 11:-0.333333 12:-0.0666667 13:-0.6 14:0.2 15:0.2 16:-0.466667 
0 1 0 0 0 0 1 1 1 0 1 0 0 1 1 1 1 1 1 0 0 1 0 1 1 1:-0.466667 2:-0.0666667 3:-0.2 4:0.333333 5:-0.2 6:0.333333 7:-0.333333 8:-0.466667 9:-0.466667 10:0.0666667 11:-0.6 12:-0.0666667 13:-0.733333 14:-0.2 15:-0.0666667 16:0.0666667 
0 0 0 0 0 0 0 0 0 0 0 0 0 0 0 0 0 0 0 0 1 0 0 0 0 1:-0.466667 2:0.0666667 3:-0.2 4:-0.2 5:-0.6 6:0.0666667 7:-0.2 8:-0.6 9:0.333333 10:0.6 11:-0.466667 12:0.333333 13:-0.866667 14:0.0666667 15:-0.2 16:0.2 
0 1 0 0 0 0 0 0 0 0 0 0 0 0 0 0 0 0 0 0 1 0 0 0 0 1:-0.466667 2:0.0666667 3:-0.2 4:-0.2 5:-0.6 6:-0.0666667 7:-0.0666667 8:-0.733333 9:0.333333 10:0.6 11:-0.333333 12:0.2 13:-0.733333 14:0.333333 15:-0.2 16:0.2 
0 1 0 0 0 0 1 0 0 0 0 0 0 0 0 1 1 0 0 0 0 1 0 0 0 1:-0.466667 2:-0.0666667 3:-0.2 4:0.2 5:-0.466667 6:0.466667 7:-0.466667 8:-0.733333 9:-0.2 10:0.2 11:-0.733333 12:-0.2 13:-0.866667 14:0.0666667 15:-0.2 16:0.2 
0 0 0 0 0 0 0 0 0.5186401504476176 0 0 0 0 1 1 0 0 0 0 0 1 0 0 0 0 1:-0.466667 2:0.0666667 3:-0.2 4:-0.2 5:-0.466667 6:0.0666667 7:-0.2 8:-0.733333 9:0.2 10:0.466667 11:-0.466667 12:0.333333 13:-0.733333 14:-0.0666667 15:-0.0666667 16:0.333333 
0 0 0 0 0 0 0 0 0 0 0 0 0 1 0 0 0 0 0 0 1 0 0 0 0 1:-0.466667 2:0.0666667 3:-0.2 4:-0.2 5:-0.466667 6:0.0666667 7:-0.2 8:-0.733333 9:0.2 10:0.466667 11:-0.466667 12:0.333333 13:-0.733333 14:-0.0666667 15:-0.0666667 16:0.2 
0 0 0 0 0 1 1 0 0 0 0 0 0 0 0 1 1 0 0 1 0 0 0 0 0 1:-0.466667 2:0.0666667 3:-0.2 4:-0.2 5:-0.466667 6:-0.0666667 7:0.2 8:-0.733333 9:0.2 10:0.466667 11:-0.0666667 12:-0.2 13:-0.866667 14:0.0666667 15:-0.2 16:-0.2 
0 0 0 0 0 0 1 0 0 0 0 0 0 0 0 1 0 0 0 0 0 0 0 0 0 1:-0.466667 2:0.0666667 3:-0.2 4:-0.2 5:-0.466667 6:0.0666667 7:-0.0666667 8:-0.733333 9:0.2 10:0.6 11:-0.2 12:-0.0666667 13:-0.866667 14:-0.0666667 15:-0.2 16:0.0666667 
0 1 0 0 0 0 1 0 0 0 0 0 0 0 0 0 1 0 0 0 1 0 0 0 0 1:-0.466667 2:0.0666667 3:-0.2 4:-0.2 5:-0.466667 6:-0.0666667 7:0.0666667 8:-0.733333 9:0.2 10:0.466667 11:-0.2 12:0.0666667 13:-0.866667 14:0.0666667 15:-0.2 16:0.0666667 
0 0 0 0 0 1 1 1 1 0 0 0 0 0 0 1 0 0 1 1 1 0 0 1 0 1:-0.466667 2:0.0666667 3:-0.2 4:-0.2 5:-0.333333 6:0.2 7:0.333333 8:-0.2 9:-0.333333 10:-0.0666667 11:-0.333333 12:0.0666667 13:-0.6 14:0.2 15:0.333333 16:-0.0666667 
0 1 0 0 0 0 1 0 0 0 0 0 0 0 0 0 0 0 0 0 0 0 0 0 0 1:-0.466667 2:0.0666667 3:-0.2 4:-0.2 5:-0.2 6:0.0666667 7:0.0666667 8:-0.733333 9:0.0666667 10:-0.0666667 11:-0.2 12:-0.0666667 13:-1 14:0.0666667 15:0.2 16:0.0666667 
0 1 0 0 0 0 1 0 0 0 0 0 0 0 0.1149380604222478 0 1 0 0 1 0 0 0 1 0 1:-0.466667 2:0.0666667 3:-0.2 4:-0.2 5:-0.2 6:-0.0666667 7:0.0666667 8:-0.733333 9:-0.0666667 10:-0.0666667 11:-0.2 12:-0.0666667 13:-0.866667 14:0.2 15:0.2 16:0.0666667 
0 1 0 0 0 0 1 0 0 0 0 0 0 0 0 0 0 0 0 0 0 0 0 1 0 1:-0.466667 2:0.0666667 3:-0.2 4:-0.2 5:-0.2 6:0.0666667 7:0.0666667 8:-0.6 9:-0.0666667 10:-0.0666667 11:-0.0666667 12:-0.0666667 13:-0.866667 14:0.2 15:0.333333 16:0.0666667 
0 1 0 0 0 0 1 0 0 0 0 0 0 0 0 0 0 0 0 0 0 0 0 0 0 1:-0.466667 2:0.0666667 3:-0.2 4:-0.2 5:-0.2 6:0.0666667 7:0.0666667 8:-0.6 9:0.0666667 10:-0.0666667 11:-0.0666667 12:-0.0666667 13:-0.866667 14:0.0666667 15:0.2 16:0.0666667 
0 1 0 0 0 1 1 0 1 0 0 0 0 0 0.1359714498873488 0 0 0 1 0 1 1 0 0 0 1:0.333333 2:1 3:0.333333 4:0.2 5:-0.0666667 6:0.0666667 7:-0.2 8:-0.6 9:0.2 10:0.6 11:-0.2 12:0.2 13:-0.466667 14:-0.333333 15:0.0666667 16:-0.0666667 
0 1 0 0.3396374400769442 0 0 1 1 1 1 1 1 1 1 1 1 1 1 1 1 1 1 1 1 0.4869512237135519 1:-0.333333 2:0.6 3:-0.2 4:-0.2 5:-0.466667 6:0.2 7:-0.333333 8:-0.6 9:0.0666667 10:0.6 11:-0.466667 12:0.2 13:-0.6 14:0.2 15:-0.333333 16:0.466667 
0 0 0 0 0 1 1 0 0 0 0 0 0 0 0 0 0 0 0 0 1 0 1 0 0 1:-0.333333 2:0.466667 3:-0.2 4:0.0666667 5:-0.333333 6:-0.2 7:0.0666667 8:-0.2 9:0.466667 10:-0.0666667 11:-0.0666667 12:0.333333 13:-0.866667 14:0.2 15:0.0666667 16:-0.0666667 
1 1 0 0 1 1 1 0 1 0 0 0 0 1 0 0 1 0 1 0 1 0 1 0 0 1:-0.333333 2:0.466667 3:-0.2 4:0.0666667 5:-0.2 6:-0.0666667 7:0.0666667 8:-0.333333 9:0.2 10:-0.0666667 11:-0.0666667 12:0.2 13:-0.866667 14:0.2 15:-0.0666667 16:-0.0666667 
0 0 0 0 0 0 1 0 -0 0 0 0 0 0 0 0 0 0 0 0 0 1 0 1 0 1:-0.333333 2:0.466667 3:-0.0666667 4:0.2 5:-0.333333 6:0.0666667 7:-0.2 8:-0.2 9:0.466667 10:-0.0666667 11:-0.333333 12:-0.2 13:-0.733333 14:-0.0666667 15:0.0666667 16:0.0666667 
0 0 0 0 0 0 1 0 0 0 0 0 0 0 0 0 0 0 0 0 0 0 0 0 0 1:-0.333333 2:0.466667 3:-0.0666667 4:0.0666667 5:-0.466667 6:0.2 7:-0.2 8:-0.6 9:0.333333 10:0.6 11:-0.466667 12:0.0666667 13:-0.866667 14:-0.0666667 15:-0.2 16:0.2 
0 1 0 0 0 0 1 1 1 1 1 0 1 1 1 1 1 1 1 1 1 1 1 1 1 1:-0.333333 2:0.333333 3:-0.333333 4:-0.333333 5:-0.6 6:0.466667 7:-0.466667 8:-0.6 9:-0.0666667 10:0.466667 11:-0.466667 12:0.2 13:-0.733333 14:0.2 15:-0.466667 16:0.466667 
1 1 0 0 1 1 1 1 0 0 1 1 0 0.2921786590330453 1 1 1 0 0 1 1 1 1 0 1 1:-0.333333 2:0.333333 3:-0.333333 4:-0.333333 5:-0.6 6:-0.333333 7:0.0666667 8:-0.733333 9:0.2 10:0.466667 11:0.0666667 12:0.0666667 13:-0.6 14:-0.2 15:-0.2 16:-0.333333 
0 0 0 0 0 0 0 0 1 0 0 0 0 1 0 0 0 0 0 0 1 0 0 0 0 1:-0.333333 2:0.333333 3:-0.2 4:0.0666667 5:-0.466667 6:0.2 7:-0.333333 8:-0.6 9:0.333333 10:0.466667 11:-0.6 12:0.333333 13:-0.866667 14:0.0666667 15:-0.2 16:0.333333 
0 0 0 0 0 0 1 0 0 0 0 0 0 0 0 0.2504767026173876 0 0 0 0 0 1 0 1 0 1:-0.333333 2:0.333333 3:-0.2 4:0.0666667 5:-0.2 6:0.2 7:-0.2 8:-0.333333 9:0.2 10:0.0666667 11:-0.333333 12:-0.0666667 13:-0.866667 14:-0.0666667 15:-0.0666667 16:0.0666667 
0 0 0 0 0 1 1 0 0 0 0 0 0 0 0 0 0 0 0 0 0 0 0 0.7590549617998035 0 1:-0.333333 2:0.333333 3:-0.2 4:0.0666667 5:-0.2 6:0.0666667 7:-0.0666667 8:-0.333333 9:0.333333 10:-0.0666667 11:-0.2 12:-0.0666667 13:-0.866667 14:0.0666667 15:-0.0666667 16:0.0666667 
0 0 0 0 0 0 1 0 0 0 0 0 0 0 0 0 0 0 0 0 0 0 0 0 0 1:-0.333333 2:0.333333 3:-0.2 4:0.0666667 5:-0.0666667 6:0.0666667 7:0.2 8:-0.6 9:-0.0666667 10:0.0666667 11:-0.2 12:0.0666667 13:-0.733333 14:0.333333 15:0.733333 16:-0.0666667 
1 0 0 0 0 0 1 0 0 0 0 0 0 0 0 1 0 0 0 0 0 0 0 0 0 1:0.333333 2:0.333333 3:-0.0666667 4:0.866667 5:-0.2 6:-0.0666667 7:0.0666667 8:-0.466667 9:-0.733333 10:0.466667 11:-0.0666667 12:-0.0666667 13:-0.6 14:0.0666667 15:0.733333 16:-0.333333 
0 0 0 0 0 0 0 0 0 0 0 0 0 1 0 0 0 0 0 0 1 0 0 0 0 1:-0.333333 2:0.333333 3:-0.0666667 4:0.0666667 5:-0.333333 6:0.0666667 7:-0.2 8:-0.733333 9:0.2 10:0.466667 11:-0.333333 12:0.333333 13:-0.733333 14:-0.0666667 15:-0.0666667 16:0.0666667 
0 0 0 0 0 1 1 0 0 0 0 0 0 0 0 1 1 0 0 1 1 0 0 0 0 1:-0.333333 2:0.333333 3:-0.0666667 4:0.0666667 5:-0.333333 6:-0.0666667 7:0.0666667 8:-0.733333 9:0.2 10:0.6 11:-0.0666667 12:0.0666667 13:-0.866667 14:0.2 15:-0.2 16:-0.0666667 
0 1 0 0 0 1 1 0 0 0 0 0 0 0 0 1 1 0 0 1 1 0 0 0 0 1:-0.333333 2:0.333333 3:-0.0666667 4:0.0666667 5:-0.333333 6:-0.0666667 7:0.0666667 8:-0.733333 9:0.2 10:0.466667 11:-0.0666667 12:-0.0666667 13:-0.866667 14:0.0666667 15:-0.2 16:-0.0666667 
0 0 0 0 0 0 1 0 0 1 0 0 0 0 0 1 0 0 0 1 1 0 1 1 0 1:-0.333333 2:-0.2 3:-0.466667 4:0.2 5:-0.6 6:-0.2 7:0.2 8:-0.333333 9:-0.6 10:0.6 11:-0.0666667 12:-0.0666667 13:-0.733333 14:0.2 15:0.333333 16:-0.2 
1 0 1 1 0 0 1 0 1 1 1 0 0 1 0 1 1 1 1 1 1 0 1 1 1 1:-0.333333 2:-0.2 3:-0.466667 4:0.2 5:-0.466667 6:0.2 7:-0.466667 8:-0.466667 9:-0.6 10:0.466667 11:-0.2 12:0.2 13:-0.733333 14:0.333333 15:0.0666667 16:0.0666667 
0 0 0 0 0 0 1 0 1 0 0 0 0 1 0 1 1 1 1 0 1 0.4714652219506344 0 1 0 1:-0.333333 2:-0.2 3:-0.466667 4:0.0666667 5:-0.6 6:0.466667 7:-0.466667 8:-0.6 9:-0.333333 10:0.466667 11:-0.466667 12:0.0666667 13:-0.6 14:0.2 15:-0.0666667 16:0.333333 
0 0 0 0.8476109351555327 0 0 1 0 1 1 0 0 0 0 0 1 0 0.2453010242369342 1 1 1 0 1 1 0 1:-0.333333 2:-0.2 3:-0.466667 4:0.0666667 5:-0.6 6:0.0666667 7:-0.2 8:-0.333333 9:-0.333333 10:0.333333 11:-0.2 12:-0.0666667 13:-0.6 14:0.2 15:0.2 16:0.2 
1 1 1 1 1 1 1 1 1 1 1 1 1 1 1 1 1 1 1 1 1 1 1 0 1 1:-0.333333 2:0.2 3:-0.333333 4:-0.466667 5:-0.6 6:-0.333333 7:0.0666667 8:-0.733333 9:0.0666667 10:0.466667 11:0.2 12:0.2 13:-0.6 14:0.2 15:-0.333333 16:-0.333333 
1 1 1 1 1 1 1 1 1 1 1 1 1 1 1 1 1 1 0 1 1 1 1 0 1 1:-0.333333 2:0.2 3:-0.333333 4:-0.466667 5:-0.6 6:-0.2 7:-0.0666667 8:-0.733333 9:0.0666667 10:0.466667 11:0.0666667 12:0.2 13:-0.6 14:0.0666667 15:-0.333333 16:-0.333333 
0 1 0 0 0 1 1 1 1 0 0 0 0 1 1 1 1 0 0 0 1 1 0 0 1 1:-0.333333 2:0.2 3:-0.333333 4:-0.466667 5:-0.6 6:0.0666667 7:-0.2 8:-0.733333 9:0.0666667 10:0.466667 11:-0.2 12:0.2 13:-0.6 14:-0.0666667 15:-0.2 16:-0.0666667 
0 1 0.514348177405347 0.585193285644555 1 0 1 1 1 1 1 1 1 1 1 1 1 1 1 1 1 1 1 1 1 1:-0.333333 2:0.2 3:-0.2 4:-0.466667 5:-0.6 6:0.333333 7:-0.6 8:-0.6 9:-0.0666667 10:0.6 11:-0.466667 12:0.333333 13:-0.733333 14:0.2 15:-0.466667 16:0.466667 
0 0 0 0 0 1 0 0 0 0 0 0 0 0 0 0 0 0 0 0 1 0 0 0 0 1:-0.333333 2:0.2 3:-0.2 4:-0.0666667 5:-0.466667 6:-0.2 7:0.0666667 8:-0.6 9:0.333333 10:0.6 11:-0.0666667 12:0.0666667 13:-0.866667 14:0.2 15:-0.2 16:-0.0666667 
0 0 0 0 0 0 1 0 0 0 0 0 0 0 0 0 0 0 0 0 0 0 0 0 0 1:-0.333333 2:0.2 3:-0.2 4:-0.0666667 5:-0.466667 6:0.0666667 7:-0.2 8:-0.2 9:0.466667 10:-0.0666667 11:-0.333333 12:-0.2 13:-0.866667 14:-0.0666667 15:0.0666667 16:0.0666667 
0 0.4623719701114135 0 0 0 0 1 0 0 0 0 0 0 0 0 0 0 0 0 0 0 0 0 0 0 1:-0.333333 2:0.2 3:-0.2 4:-0.0666667 5:-0.333333 6:0.0666667 7:-0.0666667 8:-0.333333 9:0.333333 10:-0.0666667 11:-0.2 12:0.0666667 13:-0.866667 14:0.0666667 15:-0.0666667 16:0.0666667 
0 0 0 0 0 1 1 0 0 1 0 0 0 0 0 0 0.2488679836202756 0 0 1 1 0 0 0 0 1:-0.333333 2:0.2 3:-0.0666667 4:-0.2 5:-0.333333 6:-0.0666667 7:0.0666667 8:-0.733333 9:0.2 10:0.6 11:-0.2 12:0.0666667 13:-0.866667 14:0.2 15:-0.2 16:0.0666667 
0 1 0 0 0 1 0 0 0 0 0 0 0 0 0 0 0 0 0 0 1 0 1 0 0 1:-0.333333 2:0.2 3:-0.0666667 4:-0.0666667 5:-0.466667 6:-0.0666667 7:0.0666667 8:-0.733333 9:0.333333 10:0.6 11:-0.2 12:0.2 13:-0.733333 14:0.333333 15:-0.2 16:0.0666667 
0 1 0 0 0 0 0 0 0 0 0 0 0 0 1 0 0 0 0 0 1 0 0 0 0 1:-0.333333 2:0.2 3:-0.0666667 4:-0.0666667 5:-0.333333 6:0.2 7:-0.2 8:-0.733333 9:0.2 10:0.466667 11:-0.466667 12:0.2 13:-0.6 14:-0.0666667 15:-0.0666667 16:0.2 
1 0 0 1 0 1 1 0 0 1 0 0 0 0 0 0 0 0 0 1 0 1 0 1 0 1:-0.333333 2:0.2 3:-0.0666667 4:-0.0666667 5:-0.333333 6:-0.2 7:0.2 8:-0.6 9:0.2 10:0.6 11:0.0666667 12:-0.2 13:-0.6 14:0.333333 15:0.0666667 16:-0.2 
0 0 0 0 0 0 1 1 1 1 0 0 0 0 0 1 0 1 1 1 0.7873760886873072 1 0 1 1 1:-0.333333 2:0.2 3:-0.0666667 4:-0.0666667 5:-0.2 6:0.333333 7:0.2 8:-0.2 9:-0.466667 10:-0.0666667 11:-0.333333 12:0.0666667 13:-0.6 14:0.0666667 15:0.333333 16:-0.0666667 
1 0 0 0 0 0 1 0 0 0 0 0 0 0 0 1 0 0 0 1 0 0 0 0 0 1:-0.333333 2:-0.0666667 3:-0.466667 4:0.466667 5:-0.466667 6:-0.0666667 7:0.0666667 8:-0.466667 9:-0.733333 10:0.6 11:-0.0666667 12:-0.0666667 13:-0.6 14:0.2 15:0.466667 16:-0.333333 
0 1 0 0 0 0 0 0 0 0 0 0 0 0 1 0 0 0 0 0 1 0 1 0 0 1:-0.333333 2:-0.0666667 3:-0.2 4:-0.333333 5:-0.6 6:0.0666667 7:-0.0666667 8:-0.733333 9:0.2 10:0.6 11:-0.333333 12:0.333333 13:-0.733333 14:0.2 15:-0.2 16:0.2 
0 1 0 0 0 0 0 0 1 0 0 0 0 1 1 0 0 0 0.2524961540821569 0 1 0 0.6129636143062878 0.4411966368439803 0 1:-0.333333 2:-0.0666667 3:-0.2 4:-0.333333 5:-0.466667 6:0.0666667 7:-0.333333 8:-0.733333 9:0.2 10:0.466667 11:-0.466667 12:0.333333 13:-0.733333 14:0.0666667 15:-0.2 16:0.333333 
1 1 1 1 1 1 1 1 0.2976043509013001 1 1 1 1 0 1 1 1 1 1 1 1 1 0 1 1 1:-0.333333 2:-0.0666667 3:-0.2 4:-0.333333 5:-0.333333 6:0.2 7:0.466667 8:-0.333333 9:-0.466667 10:-0.2 11:-0.333333 12:-0.0666667 13:-0.6 14:0.0666667 15:0.0666667 16:-0.333333 
1 1 0 0 0 0 1 0 1 0 0 0 0 0.157656784245714 0 0 0 0 1 0 0 1 0 1 1 1:-0.333333 2:-0.0666667 3:-0.2 4:-0.333333 5:-0.333333 6:0.2 7:-0.2 8:-0.333333 9:-0.466667 10:-0.0666667 11:-0.333333 12:-0.0666667 13:-0.6 14:0.0666667 15:0.333333 16:-0.2 
0 0.8071047989537159 0 0 0 1 1 0 0 0 0 0 0 0 0 0 1 0 0 0 1 0 0 0 0 1:-0.333333 2:0.0666667 3:-0.2 4:-0.2 5:-0.466667 6:-0.0666667 7:0.0666667 8:-0.733333 9:0.2 10:0.466667 11:-0.0666667 12:0.0666667 13:-0.866667 14:0.2 15:-0.2 16:-0.0666667 
1 1 0 0.7161180621386715 1 1 1 1 1 0 1 1 0 0 1 1 0 1 1 0.1625950991225209 1 1 1 0 1 1:-0.333333 2:0.0666667 3:-0.2 4:-0.2 5:-0.333333 6:0.2 7:0.466667 8:-0.2 9:-0.2 10:-0.2 11:-0.333333 12:0.2 13:-0.6 14:0.0666667 15:0.0666667 16:-0.333333 
0 1 0 0 0 0 1 1 1 0.07195395865135878 0 0 0 1 1 1 1 1 0.6118363004865249 0 0 1 0 1 1 1:-0.333333 2:0.0666667 3:-0.0666667 4:0.333333 5:-0.2 6:0.466667 7:-0.466667 8:-0.6 9:-0.333333 10:0.2 11:-0.733333 12:-0.0666667 13:-0.733333 14:-0.0666667 15:-0.2 16:0.2 
0 1 0 0 0 0 1 1 1 1 0 0 0 1 1 1 1 1 0 1 0 1 0 1 1 1:-0.333333 2:0.0666667 3:-0.0666667 4:0.333333 5:-0.2 6:0.466667 7:-0.333333 8:-0.6 9:-0.333333 10:0.2 11:-0.733333 12:-0.0666667 13:-0.733333 14:-0.0666667 15:-0.2 16:0.2 
1 1 0 0 0 0 1 0 1 0 0 0 0 1 0 0 0 1 0 0 0 1 0 1 1 1:-0.333333 2:-0.0666667 3:-0.0666667 4:-0.333333 5:-0.2 6:0.2 7:-0.333333 8:-0.333333 9:-0.466667 10:-0.0666667 11:-0.333333 12:-0.0666667 13:-0.6 14:-0.0666667 15:0.333333 16:-0.333333 
0 1 0 0 0 0 1 1 1 0 1 1 1 1 1 1 1 1 0 0 0 1 0 1 1 1:-0.333333 2:0.0666667 3:-0.0666667 4:0.333333 5:-0.0666667 6:0.333333 7:-0.333333 8:-0.466667 9:-0.466667 10:0.0666667 11:-0.6 12:-0.2 13:-0.6 14:-0.333333 15:0.0666667 16:0.0666667 
1 0 0 0 0 1 1 0 0 1 0 0 0 0 0 0 0 0 0 1 0 0 0 0 0 1:-0.333333 2:0.0666667 3:-0.0666667 4:-0.2 5:-0.466667 6:-0.333333 7:0.333333 8:-0.6 9:0.333333 10:0.466667 11:0.2 12:-0.2 13:-0.866667 14:0.2 15:-0.2 16:-0.333333 
1 0 0 0 0 1 1 0 0 1 0 0 0 0 0 0 0 0 0 1 0 1 0 0 0 1:-0.333333 2:0.0666667 3:-0.0666667 4:-0.2 5:-0.466667 6:-0.2 7:0.2 8:-0.6 9:0.333333 10:0.466667 11:0.2 12:-0.333333 13:-0.866667 14:0.0666667 15:-0.2 16:-0.333333 
0 1 0 0 0 0 0.5550572360352002 0 0 0 0 0 0 0 0 0 0 0 0 1 1 0 0 1 0 1:-0.333333 2:0.0666667 3:-0.0666667 4:-0.2 5:-0.466667 6:-0.0666667 7:0.0666667 8:-0.733333 9:0.333333 10:0.6 11:-0.2 12:-0.0666667 13:-0.733333 14:0.0666667 15:-0.2 16:0.0666667 
0 0 0 0 0 1 0 0 0 0 0 0 0 0 0 0 0 0 0 0 1 0 0 0 0 1:-0.333333 2:0.0666667 3:-0.0666667 4:-0.2 5:-0.466667 6:-0.0666667 7:0.0666667 8:-0.733333 9:0.333333 10:0.6 11:-0.0666667 12:0.0666667 13:-0.866667 14:0.2 15:-0.2 16:-0.0666667 
0 1 0 0 0 0 1 1 1 0.1114263235467445 1 0 0 1 1 1 0 1 1 1 1 1 0 1 1 1:-0.333333 2:0.0666667 3:-0.0666667 4:-0.2 5:-0.333333 6:0.2 7:0.0666667 8:-0.2 9:-0.466667 10:-0.0666667 11:-0.333333 12:0.0666667 13:-0.6 14:0.0666667 15:0.333333 16:-0.0666667 
0 1 0 0 0 0 1 1 1 1 1 1 0 1 1 1 1 1 1 1 0 1 0 1 1 1:-0.333333 2:-0.0666667 3:-0.0666667 4:0.2 5:-0.2 6:0.333333 7:-0.333333 8:-0.466667 9:-0.466667 10:0.0666667 11:-0.733333 12:-0.2 13:-0.733333 14:-0.0666667 15:-0.0666667 16:0.0666667 
1 1 1 1 0.8673786299656711 1 1 1 0 1 1 1 1 0 1 1 1 1 0 1 0 1 0 1 1 1:-0.333333 2:0.0666667 3:-0.0666667 4:-0.2 5:-0.2 6:0.2 7:0.2 8:-0.333333 9:-0.466667 10:-0.0666667 11:-0.333333 12:-0.0666667 13:-0.6 14:0.0666667 15:0.2 16:-0.333333 
1 1 1 1 1 1 1 1 1 0 1 1 1 0 0 1 0 1 1 1 0 1 0 1 1 1:-0.333333 2:0.0666667 3:-0.0666667 4:-0.2 5:-0.2 6:0.2 7:-0.0666667 8:-0.333333 9:-0.466667 10:-0.0666667 11:-0.333333 12:-0.0666667 13:-0.466667 14:0.0666667 15:0.333333 16:-0.333333 
0 1 0 0 0 1 0 0 1 0 0 0 0 0 1 0 0 0 0 0 1 1 0 0 0 1:0.2 2:0.733333 3:0.2 4:-0.0666667 5:-0.2 6:-0.0666667 7:-0.2 8:-0.733333 9:0.2 10:0.6 11:-0.0666667 12:0.2 13:-0.466667 14:-0.2 15:0.0666667 16:-0.2 
1 1 0 0 1 1 1 1 0.2068774993875873 0 1 0.3072373701070355 0 1 1 1 1 0 0 1 1 1 1 0 1 1:-0.2 2:0.6 3:-0.2 4:-0.2 5:-0.466667 6:-0.2 7:-0.0666667 8:-0.733333 9:0.2 10:0.466667 11:-0.0666667 12:0.0666667 13:-0.6 14:-0.0666667 15:-0.2 16:-0.2 
1 0 0 0.4679685603366038 0 1 1 0 0 1 0 0 0 0 0 1 1 0.09876338153771629 0 1 0 0 1 0 0 1:0.2 2:0.466667 3:-0.2 4:1 5:-0.2 6:-0.333333 7:0.466667 8:-0.6 9:-0.6 10:0.6 11:0.0666667 12:-0.2 13:-0.6 14:0.2 15:0.466667 16:-0.333333 
0 0 0 0 0 0.1771524361692458 0 0 0 0 0 0 0 0 0 0 0 0 0 0 1 0 0 0 0 1:-0.2 2:0.466667 3:0.0666667 4:0.2 5:-0.333333 6:-0.0666667 7:0.0666667 8:-0.6 9:0.466667 10:0.6 11:-0.0666667 12:0.0666667 13:-0.733333 14:0.2 15:-0.0666667 16:0.0666667 
1 1 1 1 1 1 1 1 1 1 0 1 1 1 0 1 1 1 0 1 0 1 0 1 1 1:-0.2 2:0.466667 3:0.0666667 4:0.2 5:0.0666667 6:0.333333 7:-0.0666667 8:-0.333333 9:-0.466667 10:-0.0666667 11:-0.333333 12:-0.0666667 13:-0.466667 14:0.0666667 15:0.333333 16:-0.333333 
1 1 0 0 0.6389667035986485 1 1 0 0 0 0 0 0 0 0 0 0 0 0 0.05660898701710342 0 1 0 0 0 1:-0.2 2:0.466667 3:0.0666667 4:0.0666667 5:-0.333333 6:-0.2 7:0.2 8:-0.6 9:0.466667 10:0.466667 11:0.2 12:-0.2 13:-0.733333 14:0.0666667 15:-0.2 16:-0.333333 
0 0 0 0 0 0 0 0 0 0 0 0 0 0 0 0 0 0 0 0 0 1 0 0 0 1:-0.2 2:0.466667 3:0.0666667 4:0.0666667 5:-0.333333 6:0.2 7:-0.2 8:-0.6 9:0.333333 10:0.6 11:-0.466667 12:0.0666667 13:-0.733333 14:-0.0666667 15:-0.2 16:0.0666667 
1 0 0 0 0 0 1 0 1 0 0 0 0.3945567436465952 0 0 1 0 0 0 0 0 1 0 1 1 1:-0.2 2:0.466667 3:0.0666667 4:0.0666667 5:-0.0666667 6:0.333333 7:-0.333333 8:-0.333333 9:-0.333333 10:0.0666667 11:-0.333333 12:-0.0666667 13:-0.466667 14:-0.0666667 15:0.333333 16:-0.333333 
1 1 1 1 1 1 1 1 1 1 0 1 1 0 1 1 1 1 1 1 0 1 0 1 1 1:-0.2 2:0.466667 3:0.0666667 4:0.0666667 5:0.0666667 6:0.333333 7:0.2 8:-0.333333 9:-0.466667 10:-0.0666667 11:-0.333333 12:-0.0666667 13:-0.6 14:0.0666667 15:0.2 16:-0.333333 
0 0 0 0 0 0 1 0 0 0 0 0 0 0 0 0 0 0 0 1 0 0 0 0 0 1:0.2 2:0.333333 3:-0.2 4:0.866667 5:-0.2 6:-0.2 7:0.333333 8:-0.466667 9:-0.733333 10:0.6 11:-0.0666667 12:-0.2 13:-0.6 14:0.2 15:0.866667 16:-0.2 
1 0 0 0 0 1 1 0 0 0.9470385459289552 0 0 0 0 0 1 0 0 1 1 0 0 1 0 0 1:0.2 2:0.333333 3:-0.2 4:0.866667 5:-0.2 6:-0.2 7:0.2 8:-0.333333 9:-0.733333 10:0.6 11:0.0666667 12:-0.0666667 13:-0.6 14:0.0666667 15:0.6 16:-0.333333 
0 0 0 0 0 0 0 0 1 0 0 0 0 0 0 0 0 0 0 0 0 0 0 0 0 1:0.2 2:0.333333 3:-0.2 4:0.866667 5:-0.2 6:0.0666667 7:-0.466667 8:-0.333333 9:-0.466667 10:0.6 11:-0.0666667 12:0.2 13:-0.6 14:0.0666667 15:0.6 16:-0.0666667 
0 1 0 0 0 1 1 1 1 1 1 0 0 1 1 1 1 1 1 1 1 1 1 1 0 1:-0.2 2:0.333333 3:-0.2 4:-0.333333 5:-0.6 6:0.2 7:-0.333333 8:-0.733333 9:0.0666667 10:0.466667 11:-0.333333 12:0.2 13:-0.733333 14:0.2 15:-0.333333 16:0.2 
1 0 0 1 1 1 1 0 0 1 0.002676160898114248 1 0 0 0 0 0 1 0 1 1 0 1 0 0 1:-0.2 2:0.333333 3:0.2 4:-0.0666667 5:-0.333333 6:-0.333333 7:0.333333 8:-0.466667 9:0.333333 10:0.466667 11:0.333333 12:-0.2 13:-0.866667 14:0.2 15:-0.2 16:-0.333333 
0 0 0 0 0 1 1 0 0 1 0 0 0 0 0 0 0 0 0 1 0 0.8764161455821183 0 1 0 1:-0.2 2:0.333333 3:0.2 4:-0.0666667 5:-0.333333 6:-0.0666667 7:0.0666667 8:-0.6 9:0.333333 10:0.6 11:-0.0666667 12:-0.2 13:-0.866667 14:0.0666667 15:-0.2 16:-0.0666667 
1 1 1 1 0.9315409729990736 1 1 1 1 1 0.3924321160353011 1 1 0 1 1 0 1 1 1 1 1 1 1 1 1:-0.2 2:0.333333 3:0.2 4:0.0666667 5:-0.0666667 6:0.333333 7:0.2 8:-0.2 9:-0.333333 10:-0.0666667 11:-0.2 12:0.0666667 13:-0.466667 14:0.2 15:0.333333 16:-0.0666667 
1 1 0 1 0 1 1 1 0 1 0 1 0 0 0 1 0 1 1 1 0 1 0 1 1 1:-0.2 2:0.333333 3:0.2 4:0.0666667 5:-0.0666667 6:0.2 7:0.2 8:-0.333333 9:-0.466667 10:-0.0666667 11:-0.333333 12:-0.0666667 13:-0.6 14:0.2 15:0.333333 16:-0.333333 
0 0 0 0 0 0 1 0 0 0 0 0 0 0 0 0 0 0 0 0 0 0 0 0 0 1:0.2 2:0.333333 3:-0.0666667 4:0.866667 5:-0.2 6:0.0666667 7:-0.0666667 8:-0.466667 9:-0.733333 10:0.6 11:-0.2 12:0.0666667 13:-0.6 14:0.2 15:0.733333 16:-0.2 
1 0 0 0 0 1 1 0 0 0 0 0 0 0 0 0 0 0 0 1 0 0 0 0 0 1:-0.2 2:0.333333 3:0.0666667 4:0.0666667 5:-0.466667 6:-0.2 7:0.2 8:-0.6 9:0.333333 10:0.466667 11:0.2 12:-0.333333 13:-0.733333 14:0.0666667 15:-0.0666667 16:-0.333333 
0 0 0 0 0 0 0 0 1 0 0 0 0 0.5416533865038907 0 0 0 0 0 0 1 0 0 0 0 1:-0.2 2:0.333333 3:0.0666667 4:0.0666667 5:-0.333333 6:0.0666667 7:-0.2 8:-0.733333 9:0.2 10:0.6 11:-0.466667 12:0.466667 13:-0.6 14:-0.0666667 15:0.0666667 16:0.2 
0 0 0 0 0 0 1 0 0 0 0 0 0 0 0 0 0 0 0 0 1 0 0 0 0 1:-0.2 2:0.333333 3:0.0666667 4:-0.0666667 5:-0.333333 6:0.0666667 7:-0.2 8:-0.6 9:0.333333 10:0.6 11:-0.466667 12:0.2 13:-0.866667 14:-0.0666667 15:-0.2 16:0.2 
0 0 0 0 0 0 0 0 1 0 0 0 0 0 0 0 0 0 0 0 0 0 0 0 0 1:-0.2 2:0.333333 3:0.0666667 4:0.0666667 5:-0.333333 6:0.0666667 7:-0.2 8:-0.6 9:0.2 10:0.6 11:-0.466667 12:0.2 13:-0.6 14:-0.2 15:0.0666667 16:0.2 
0 0 0 0 0 1 0 0 0 0 0 0 0 0 0 0 0 0 0 0 0 0 0 0 0 1:-0.2 2:0.333333 3:0.0666667 4:0.0666667 5:-0.333333 6:-0.0666667 7:0.0666667 8:-0.6 9:0.333333 10:0.6 11:0.0666667 12:-0.0666667 13:-0.733333 14:0.0666667 15:-0.0666667 16:-0.2 
0 0 0 0 0 0 1 0 1 0 0 0 0 0 0 0 0 0 1 0 0 1 0 1 1 1:-0.2 2:0.333333 3:0.0666667 4:-0.0666667 5:-0.2 6:0.333333 7:-0.2 8:-0.333333 9:-0.466667 10:0.0666667 11:-0.333333 12:-0.0666667 13:-0.6 14:-0.0666667 15:0.466667 16:-0.0666667 
0 0 0 0 0 0 1 0 0 0 0 0 0 0 0 1 0 0 0 0 1 0 0 0 0 1:-0.2 2:0.333333 3:0.0666667 4:0.0666667 5:-0.2 6:0.0666667 7:-0.0666667 8:-0.733333 9:0.2 10:0.6 11:-0.333333 12:0.0666667 13:-0.866667 14:0.0666667 15:-0.2 16:0.0666667 
0 0 0 0 0 0 0.6087487002618834 0 0 0 0 0 0 0 0 1 0 0 0 0 0.7435561304140369 0 0 0 0 1:-0.2 2:0.333333 3:0.0666667 4:0.0666667 5:-0.2 6:0.0666667 7:-0.0666667 8:-0.733333 9:0.2 10:0.6 11:-0.333333 12:0.0666667 13:-0.866667 14:-0.0666667 15:-0.2 16:0.0666667 
0 0 0 0 0 1 1 0 0 0 0 0 0 0 1 0 0 0 0 0.641295553103385 1 0 0 0 0 1:-0.2 2:0.333333 3:0.0666667 4:-0.0666667 5:-0.2 6:-0.0666667 7:-0.0666667 8:-0.733333 9:0.2 10:0.6 11:-0.2 12:0.2 13:-0.866667 14:0.2 15:-0.2 16:0.0666667 
0 0 0 0 0 1 1 0 0 0 0 0 0 0 0 0 1 0 0 1 1 0 0 0.1296162361857812 0 1:-0.2 2:0.333333 3:0.0666667 4:-0.0666667 5:-0.2 6:-0.0666667 7:-0.0666667 8:-0.733333 9:0.2 10:0.6 11:-0.2 12:0.0666667 13:-0.866667 14:0.0666667 15:-0.2 16:0.0666667 
1 0 0 1 0 1 1 0 1 1 1 0 0 0 0 1 1 1 1 1 1 0 1 1 0 1:-0.2 2:-0.2 3:-0.333333 4:0.2 5:-0.466667 6:-0.0666667 7:0.0666667 8:-0.333333 9:-0.6 10:0.466667 11:-0.0666667 12:-0.0666667 13:-0.733333 14:0.2 15:0.2 16:-0.0666667 
0 0 0 0 0 0 1 0 0 0 0 0 0 0 0 0.2118289079373429 0 0 0 1 0 0 0 0.965328968174416 0 1:0.2 2:0.2 3:-0.2 4:0.6 5:-0.2 6:-0.2 7:0.2 8:-0.466667 9:-0.733333 10:0.6 11:-0.0666667 12:-0.0666667 13:-0.6 14:0.0666667 15:0.733333 16:-0.2 
0 1 0 0 0 0 0 1 0 0 0 0 0 0 1 0 0 1 0 0 1 1 0 0 0 1:-0.2 2:0.2 3:0.2 4:-0.0666667 5:-0.2 6:0.0666667 7:-0.2 8:-0.733333 9:0.2 10:0.466667 11:-0.333333 12:0.2 13:-0.6 14:-0.333333 15:-0.0666667 16:0.0666667 
1 1 0 1 1 1 1 1 0 1 1 1 0 0 0 1 0 1 0 1 0 1 0 1 1 1:-0.2 2:0.2 3:0.0666667 4:-0.2 5:-0.2 6:0.2 7:0.333333 8:-0.2 9:-0.333333 10:-0.2 11:-0.333333 12:-0.2 13:-0.6 14:0.2 15:0.2 16:-0.466667 
0 0 0 0 0 0 1 0 0 0 0 0 0 0 0 0 0 0 0 0 0 0 0 0 0 1:-0.2 2:0.2 3:0.0666667 4:-0.0666667 5:-0.466667 6:0.2 7:-0.2 8:-0.6 9:0.333333 10:0.466667 11:-0.466667 12:0.2 13:-0.866667 14:-0.0666667 15:-0.2 16:0.0666667 
0 0 0 0 0 0 0 0 0 0 0 0 0 0 0 0 0 0 0 0 1 0 0 0 0 1:-0.2 2:0.2 3:0.0666667 4:-0.0666667 5:-0.466667 6:0.0666667 7:-0.2 8:-0.6 9:0.466667 10:0.6 11:-0.333333 12:0.333333 13:-0.866667 14:0.0666667 15:-0.2 16:0.0666667 
0 1 0 0 0 0 0 0 1 0 0 0 0 1 1 0 0 0 0 0 1 0 0 0 0 1:-0.2 2:0.2 3:0.0666667 4:-0.0666667 5:-0.333333 6:0.2 7:-0.333333 8:-0.6 9:0.2 10:0.466667 11:-0.6 12:0.466667 13:-0.6 14:-0.2 15:-0.0666667 16:0.2 
0 0 0 0 0 1 1 0 0 0 0 0 0 0 0 0 0 0 0 1 1 0 0 0 0 1:-0.2 2:0.2 3:0.0666667 4:-0.0666667 5:-0.333333 6:-0.0666667 7:-0.0666667 8:-0.733333 9:0.2 10:0.6 11:-0.2 12:0.0666667 13:-0.866667 14:0.2 15:-0.2 16:0.0666667 
0 0 0 0 0 0 1 0 0 0 0 0 0 0 0 0 0 0 0 0 1 0 0 0 0 1:-0.2 2:0.2 3:0.0666667 4:-0.0666667 5:-0.333333 6:-0.0666667 7:-0.0666667 8:-0.733333 9:0.2 10:0.6 11:-0.2 12:0.0666667 13:-0.866667 14:0.0666667 15:-0.2 16:-0.0666667 
1 1 1 1 0 1 1 1 0 1 0 1 1 0 1 1 0 1 0 1 0 1 0 1 1 1:-0.2 2:0.2 3:0.0666667 4:-0.0666667 5:0.0666667 6:0.2 7:0.0666667 8:-0.466667 9:-0.466667 10:-0.2 11:-0.466667 12:-0.2 13:-0.466667 14:0.0666667 15:0.333333 16:-0.466667 
0 0 0 0 0 0 1 0 1 0 0 0 0 0 0 1 0 0 0 0 0 0 0 0 0 1:-0.2 2:-0.0666667 3:-0.466667 4:0.466667 5:-0.466667 6:0.0666667 7:-0.333333 8:-0.466667 9:-0.466667 10:0.466667 11:-0.2 12:0.0666667 13:-0.6 14:0.2 15:0.333333 16:0.0666667 
1 0 0 0 0 0 1 0 1 1 0 0 0 0 0 1 1 0 1 1 1 0 0 1 0 1:-0.2 2:-0.0666667 3:-0.466667 4:0.333333 5:-0.466667 6:0.0666667 7:-0.2 8:-0.466667 9:-0.466667 10:0.466667 11:-0.2 12:-0.0666667 13:-0.733333 14:0.333333 15:0.2 16:0.0666667 
0 0 0 0 0 0 1 0 0.855394874354274 0 0 0 0 0 0 1 0 0 0 0 0 0 0 0 0 1:-0.2 2:-0.0666667 3:-0.333333 4:0.466667 5:-0.466667 6:0.2 7:-0.2 8:-0.466667 9:-0.6 10:0.466667 11:-0.2 12:0.0666667 13:-0.6 14:0.2 15:0.466667 16:-0.0666667 
0 0 0 0 0 0 1 0 1 0 0 0 0 0 0 1 0 0 1 0 0 0 0 1 0 1:-0.2 2:-0.0666667 3:-0.333333 4:0.333333 5:-0.466667 6:0.0666667 7:-0.333333 8:-0.333333 9:-0.333333 10:0.466667 11:-0.2 12:-0.0666667 13:-0.6 14:0.2 15:0.2 16:0.0666667 
0 1 0 0 0 0 1 1 1 1 0.3193995060039614 1 0 0 0.1767771404830518 1 1 1 0 0 0 1 0 1 1 1:-0.2 2:0.0666667 3:0.0666667 4:0.333333 5:-0.0666667 6:0.466667 7:-0.333333 8:-0.466667 9:-0.333333 10:0.0666667 11:-0.733333 12:-0.2 13:-0.733333 14:-0.0666667 15:-0.0666667 16:0.0666667 
0 0 0.01486325601112188 0 0 0 1 1 1 1 1 1 1 0 1 1 0 1 0 1 0 1 0 1 1 1:-0.2 2:-0.0666667 3:0.0666667 4:0.2 5:0.0666667 6:0.2 7:0.0666667 8:-0.2 9:-0.333333 10:0.2 11:-0.6 12:-0.2 13:-0.6 14:-0.333333 15:0.0666667 16:-0.0666667 
0 0 0 0 0 0 1 1 1 0.644235194785473 1 0 0 1 1 1 1 0 1 0.9885839919894582 1 1 1 1 1 1:-0.0666667 2:1 3:-0.0666667 4:0.2 5:-0.333333 6:0.466667 7:-0.6 8:-0.466667 9:-0.2 10:0.6 11:-0.6 12:0.333333 13:-0.6 14:-0.0666667 15:-0.0666667 16:0.466667 
0 1 0 0 1 1 0 1 1 0 0 1 1 0 1 1 0 0 0 1 1 1 0 1 1 1:0.0666667 2:1 3:0.0666667 4:0.0666667 5:-0.2 6:-0.0666667 7:-0.0666667 8:-0.733333 9:0.2 10:0.6 11:-0.0666667 12:0.0666667 13:-0.2 14:-0.333333 15:0.0666667 16:-0.333333 
0 1 0 0.9584984190248612 1 1 1 1 1 1 1 1 1 1 1 1 1 1 1 1 1 1 1 1 1 1:-0.0666667 2:0.866667 3:-0.0666667 4:0.0666667 5:-0.466667 6:0.333333 7:-0.466667 8:-0.6 9:0.0666667 10:0.6 11:-0.466667 12:0.333333 13:-0.6 14:0.2 15:-0.466667 16:0.466667 
0 0 0 0 0 0 1 1 1 0 1 0 0 1 0.4435716178356831 0.9122259732572057 0 0 1 0 1 1 1 1 0 1:0.0666667 2:0.866667 3:0.0666667 4:0.0666667 5:-0.333333 6:0.466667 7:-0.466667 8:-0.333333 9:0.0666667 10:0.6 11:-0.6 12:0.333333 13:-0.466667 14:-0.466667 15:0.0666667 16:0.6 
0 1 0 0 0 1 0.4247568108239086 1 1 0 0 0 0 1 1 1 1 0 0 1 1 1 0.7872350509058925 0 0 1:-0.0666667 2:0.866667 3:-0.0666667 4:0.0666667 5:-0.333333 6:-0.2 7:-0.0666667 8:-0.733333 9:0.2 10:0.6 11:-0.0666667 12:0.0666667 13:-0.466667 14:-0.2 15:-0.0666667 16:-0.2 
0 1 0 0 0 1 1 0 1 0 0 0 0 1 1 1 1 0 0.2059089578673741 0 1 1 0 0 1 1:0.0666667 2:0.866667 3:0.0666667 4:0.0666667 5:-0.333333 6:0.0666667 7:-0.333333 8:-0.733333 9:0.2 10:0.6 11:-0.2 12:0.2 13:-0.6 14:-0.0666667 15:-0.2 16:-0.0666667 
1 1 0 0 1 1 1 0 1 0 0 0 0 1 1 0 1 0 0 0 1 1 1 0 1 1:0.0666667 2:0.866667 3:0.0666667 4:0.0666667 5:-0.333333 6:-0.0666667 7:-0.0666667 8:-0.733333 9:0.2 10:0.466667 11:-0.0666667 12:0.2 13:-0.466667 14:-0.0666667 15:-0.0666667 16:-0.333333 
1 1 1 1 1 1 0 1 0 0 1 1 1 0 1 0 0 1 0 0 1 1 0 0 1 1:0.0666667 2:0.733333 3:0.2 4:-0.0666667 5:-0.2 6:-0.333333 7:0.2 8:-0.733333 9:0.2 10:0.6 11:0.0666667 12:0.0666667 13:-0.2 14:-0.333333 15:0.0666667 16:-0.733333 
0 1 0 1 1 1 1 1 1 1 1 1 0 1 1 1 1 1 1 1 1 1 1 1 1 1:-0.0666667 2:0.733333 3:-0.0666667 4:-0.0666667 5:-0.466667 6:0.0666667 7:-0.333333 8:-0.733333 9:0.0666667 10:0.466667 11:-0.333333 12:0.2 13:-0.6 14:0.2 15:-0.333333 16:0.2 
0 1 0 0 0 1 0.0909388499812492 1 0 0 0 0 0 0 1 0 0 0 0 0 0.3588037477280432 1 0 0 0 1:-0.0666667 2:0.733333 3:-0.0666667 4:-0.0666667 5:-0.333333 6:-0.2 7:-0.0666667 8:-0.733333 9:0.2 10:0.466667 11:-0.2 12:0.0666667 13:-0.466667 14:-0.333333 15:0.0666667 16:-0.2 
0 0 0 0 0 0 1 1 1 1 1 0 1 1 1 1 1 1 1 0.9333382380143287 1 1 1 1 1 1:-0.0666667 2:0.6 3:-0.0666667 4:-0.2 5:-0.466667 6:0.333333 7:-0.6 8:-0.466667 9:-0.0666667 10:0.6 11:-0.466667 12:0.333333 13:-0.6 14:0.0666667 15:-0.2 16:0.333333 
0 0 0 0 0 0 1 1 1 0 1 0 1 1 1 0 0 0.8378990059223943 1 0 1 1 1 1 1 1:0.0666667 2:0.6 3:0.0666667 4:-0.2 5:-0.333333 6:0.333333 7:-0.6 8:-0.466667 9:-0.0666667 10:0.6 11:-0.6 12:0.466667 13:-0.6 14:-0.2 15:-0.0666667 16:0.466667 
0 1 0 0 0 0 1 0 1 0 0 0 0 1 1 0 0 0 1 0 1 0 1 0 0 1:0.0666667 2:0.6 3:0.0666667 4:-0.2 5:-0.333333 6:0.0666667 7:-0.333333 8:-0.733333 9:0.0666667 10:0.6 11:-0.2 12:0.333333 13:-0.6 14:-0.0666667 15:-0.0666667 16:0.0666667 
0 0 0 0 0 0 0 0 1 0 0 0 0 1 1 0 0 0 0 0 1 0 0 0 0 1:-0.0666667 2:0.466667 3:0.2 4:0.0666667 5:-0.2 6:0.0666667 7:-0.2 8:-0.733333 9:0.2 10:0.6 11:-0.333333 12:0.333333 13:-0.733333 14:0.0666667 15:-0.0666667 16:0.2 
0 0 0 0 0 1 1 0 0 0 0 0 0 0 0 0 0 0 0 0 1 1 0 1 0 1:-0.0666667 2:0.466667 3:0.2 4:0.0666667 5:-0.2 6:0.0666667 7:-0.0666667 8:-0.6 9:0.333333 10:0.6 11:-0.2 12:0.0666667 13:-0.733333 14:-0.0666667 15:-0.2 16:0.0666667 
0 1 0 0 0 1 1 0 0 1 0 0 0 1 1 0 1 1 0 1 1 0 1 1 0 1:-0.0666667 2:0.466667 3:0.2 4:0.0666667 5:-0.0666667 6:-0.0666667 7:-0.0666667 8:-0.733333 9:0.2 10:0.6 11:-0.2 12:0.2 13:-0.733333 14:0.2 15:-0.2 16:0.0666667 
0 1 0 0 0 0 1 1 1 0 0 0 0 1 1 0 0 0 1 0 1 1 0 1 0 1:-0.0666667 2:0.466667 3:-0.0666667 4:-0.2 5:-0.466667 6:0.2 7:-0.333333 8:-0.6 9:0.0666667 10:0.466667 11:-0.466667 12:0.2 13:-0.6 14:-0.2 15:-0.0666667 16:0.2 
1 1 0.8836396206625587 1 1 1 1 1 1 1 1 1 0.4782876155614727 1 1 1 1 1 1 1 1 1 1 1 1 1:-0.0666667 2:0.466667 3:-0.0666667 4:-0.2 5:-0.466667 6:0.0666667 7:-0.2 8:-0.733333 9:0.0666667 10:0.466667 11:-0.2 12:0.2 13:-0.6 14:0.2 15:-0.333333 16:0.0666667 
0 0 0 0 0 1 1 0 0 0 0 0 0 0 0 0 0 0 0 0 0 0 0 0 0 1:-0.0666667 2:0.333333 3:0.2 4:0.0666667 5:-0.333333 6:-0.0666667 7:0.0666667 8:-0.6 9:0.333333 10:0.6 11:-0.0666667 12:-0.0666667 13:-0.866667 14:0.0666667 15:-0.2 16:-0.0666667 
1 1 0 1 0 1 1 0 0 1 0 1 0 0 1 0 0 1 0 1 1 1 0 1 0 1:-0.0666667 2:0.333333 3:0.2 4:0.0666667 5:-0.2 6:-0.2 7:0.2 8:-0.6 9:0.2 10:0.6 11:0.0666667 12:-0.2 13:-0.6 14:0.333333 15:-0.0666667 16:-0.2 
0 1 0 0 0 1 1 0 0 1 0 0 0 0 1 1 1 1 0 1 1 0 0 1 0 1:-0.0666667 2:0.333333 3:0.2 4:0.0666667 5:-0.2 6:-0.0666667 7:0.0666667 8:-0.733333 9:0.2 10:0.6 11:-0.0666667 12:-0.0666667 13:-0.866667 14:0.0666667 15:-0.2 16:0.0666667 
0 1 0 0 0 1 1 0 1 0 1 0 0 1 1 1 1 1 0 1 1 1 1 0 0 1:-0.0666667 2:0.333333 3:-0.0666667 4:-0.2 5:-0.466667 6:0.0666667 7:-0.2 8:-0.733333 9:0.0666667 10:0.6 11:-0.2 12:0.2 13:-0.6 14:0.0666667 15:-0.2 16:-0.0666667 
1 0 0 0 0 0.8777249666697625 1 0 1 0 0 0 0 0 0 1 0 0 0 1 0 0 0.2788659496897198 0 0 1:-0.0666667 2:0.2 3:-0.333333 4:0.733333 5:-0.333333 6:-0.0666667 7:0.0666667 8:-0.333333 9:-0.6 10:0.466667 11:-0.0666667 12:-0.0666667 13:-0.6 14:0.2 15:0.466667 16:-0.2 
0 1 0 0 0 1 1 0 0 0 1 0 0 0 1 0 0 1 0 0 1 1 0 0 0 1:-0.0666667 2:0.2 3:-0.0666667 4:-0.333333 5:-0.466667 6:-0.0666667 7:-0.0666667 8:-0.733333 9:0.2 10:0.6 11:-0.2 12:0.0666667 13:-0.6 14:-0.0666667 15:-0.2 16:-0.2 
0 0 0 0 0 0 0.3430104032910171 0 1 0 0 0 0 1 0 1 0 0 1 0 1 0 0 1 0 1:0.0666667 2:0.0666667 3:-0.333333 4:0.6 5:-0.333333 6:0.333333 7:-0.6 8:-0.466667 9:-0.333333 10:0.6 11:-0.333333 12:0.2 13:-0.6 14:0.0666667 15:0.2 16:0.466667 
1 0 0 1 1 1 1 0 1 1 1 0 0 0 0 1 0 1 1 1 1 1 1 1 0 1:-0.0666667 2:0.0666667 3:-0.333333 4:0.466667 5:-0.466667 6:-0.0666667 7:-0.2 8:-0.2 9:-0.333333 10:0.333333 11:-0.0666667 12:-0.0666667 13:-0.6 14:0.2 15:0.2 16:-0.0666667 
1 0 0 0 0 1 1 0 0 0.3794932175978633 0 0 0 0 0 1 0 0 0 1 0 0 1 1 0 1:-0.0666667 2:-0.0666667 3:-0.333333 4:0.466667 5:-0.466667 6:-0.0666667 7:0.0666667 8:-0.333333 9:-0.6 10:0.466667 11:-0.0666667 12:-0.0666667 13:-0.733333 14:0.2 15:0.333333 16:-0.2 
0 0 0 0 0 0 1 0 1 0 0 0 0 1 0 0 0 0 1 0 0 0 0 0 0 1:-0.0666667 2:-0.0666667 3:-0.333333 4:0.333333 5:-0.333333 6:0.2 7:-0.466667 8:-0.466667 9:-0.6 10:0.466667 11:-0.2 12:0.2 13:-0.6 14:0.2 15:0.466667 16:0.0666667 
0 0 0 0 0 0 1 0 1 0 0 0 0 0 0 0 0 0 0.03797143744896998 0 0 0 0 0 0 1:0.0666667 2:0.0666667 3:-0.2 4:0.6 5:-0.333333 6:0.0666667 7:-0.333333 8:-0.333333 9:-0.466667 10:0.466667 11:-0.2 12:0.0666667 13:-0.6 14:0.2 15:0.466667 16:-0.0666667 
0.2606413277036002 0 0 0 0 0 1 0 1 0 0 0 0 0 0 1 0 -0 0 0 0 0 0.6991631091269533 0 0 1:0.0666667 2:0.0666667 3:-0.2 4:0.466667 5:-0.333333 6:-0.0666667 7:-0.0666667 8:-0.466667 9:-0.6 10:0.466667 11:-0.2 12:0.0666667 13:-0.6 14:0.2 15:0.466667 16:-0.2 
-0 0 1 1 0 0 0 0 0 0 0 1 0 0 0 0 0 0 0 0 0 0 0 0 0 1:-1 2:-1 3:-0.866667 4:-1 5:-1 6:-0.0666667 7:0.333333 8:-0.866667 9:-0.6 10:-0.0666667 11:0.466667 12:0.0666667 13:-0.866667 14:0.466667 15:-1 16:0.0666667 
-0 0 0 1 0 0 0 0 0 0 0 0 0 0 0 0 0 0 0 0 0 0 0 0 0 1:-0.866667 2:-1 3:-0.866667 4:-1 5:-1 6:0.0666667 7:0.333333 8:-0.866667 9:-0.6 10:-0.2 11:0.466667 12:0.0666667 13:-0.866667 14:0.466667 15:-1 16:0.0666667 
-0 0 0 1 0 0 0 0 0 0 0 0 0 0 0 0 0 0 0 0 0 0 0 0 0 1:-0.866667 2:-1 3:-0.866667 4:-1 5:-1 6:-0.0666667 7:0.333333 8:-0.733333 9:-0.733333 10:-0.0666667 11:0.6 12:0.0666667 13:-0.866667 14:0.466667 15:-1 16:0.0666667 
-0 0 1 1 0 0 0 0 1 0 0.07267777649534198 0 0 0 0 0 0 0 0 0 0 0 0 0 0 1:-0.866667 2:-1 3:-0.866667 4:-1 5:-1 6:-0.0666667 7:0.333333 8:-0.6 9:-0.866667 10:-0.0666667 11:0.6 12:0.0666667 13:-0.866667 14:0.466667 15:-1 16:0.0666667 
-0 0 0 1 0 0 0 0 0 0 0 0 0 0 0 0 0 0 0 0 0 0 0 0 0 1:-0.866667 2:-1 3:-0.733333 4:-1 5:-1 6:-0.0666667 7:0.333333 8:-0.866667 9:-0.6 10:-0.0666667 11:0.6 12:0.0666667 13:-0.866667 14:0.466667 15:-1 16:0.0666667 
-0 0 0 1 0 0 0 0 0 0 0 0 0 0 0 0 0 0 0 0 0 0 0 0 0 1:-0.866667 2:-1 3:-0.733333 4:-1 5:-1 6:-0.0666667 7:0.333333 8:-0.866667 9:-0.6 10:-0.0666667 11:0.6 12:0.0666667 13:-0.866667 14:0.466667 15:-1 16:0.0666667 
-0 0 1 1 0 0 0 0 0 0 0 0 0 0 0 0 0 0 0 0 0 0 0 0 0 1:-0.866667 2:-1 3:-0.733333 4:-1 5:-1 6:0.0666667 7:0.333333 8:-0.6 9:-0.866667 10:-0.2 11:0.6 12:0.0666667 13:-0.866667 14:0.466667 15:-1 16:0.0666667 
-0 0 0.3599662410966705 1 0 0 0 0 0 0 0 0 0 0 0 0 0 0 0 0 0 0 0 0 0 1:-0.866667 2:-1 3:-0.733333 4:-1 5:-1 6:0.0666667 7:0.333333 8:-0.6 9:-0.866667 10:-0.2 11:0.6 12:0.0666667 13:-0.866667 14:0.466667 15:-1 16:0.0666667 
-0 0 1 1 0 0 0 0 0 0 0 0 0 0 0 0 0 0 0 0 0 0 0 0 0 1:-0.866667 2:-1 3:-0.733333 4:-1 5:-1 6:-0.0666667 7:0.333333 8:-0.6 9:-0.866667 10:-0.0666667 11:0.6 12:0.0666667 13:-0.866667 14:0.466667 15:-1 16:0.0666667 
-0 0 1 1 0 0 0 0 0 0 0 0 0.4617690483703617 0 0 0 0 0 0 0 0 0 0 0 0 1:-0.866667 2:-1 3:-0.733333 4:-1 5:-1 6:-0.0666667 7:0.333333 8:-0.6 9:-0.866667 10:-0.0666667 11:0.6 12:0.0666667 13:-0.866667 14:0.466667 15:-1 16:0.0666667 
-0 0 1 1 0 0 0 0 0 0 0 0 0.9798571802679424 0 0 0 0 0 0 0 0 0 0 0 0 1:-0.866667 2:-1 3:-0.733333 4:-1 5:-1 6:-0.0666667 7:0.333333 8:-0.6 9:-0.866667 10:-0.0666667 11:0.6 12:0.0666667 13:-0.866667 14:0.466667 15:-1 16:0.0666667 
-0 0 1 1 0.7334768773761302 0 0 0 0 0 0 1 1 0 0 0 0 0 0 0 0 0 0 0 0 1:-0.866667 2:-1 3:-0.733333 4:-1 5:-1 6:-0.0666667 7:0.2 8:-0.733333 9:-0.866667 10:-0.2 11:0.6 12:0.0666667 13:-0.866667 14:0.333333 15:-1 16:0.0666667 
-0 0 0.9892141695850046 1 1 0 0 0 0 0 0 1 1 0 0 0 0 0 0 0 0 0 0 0 0 1:-0.866667 2:-1 3:-0.733333 4:-1 5:-1 6:-0.0666667 7:0.2 8:-0.733333 9:-0.733333 10:-0.2 11:0.6 12:0.0666667 13:-0.866667 14:0.333333 15:-1 16:0.0666667 
-0 0 0 1 0 0 0 0 0 0 0 0 0 0 0 0 0 0 0 0 0 0 0 0 0 1:-0.866667 2:-1 3:-0.733333 4:-1 5:-1 6:-0.0666667 7:0.2 8:-0.6 9:-0.866667 10:-0.0666667 11:0.733333 12:0.0666667 13:-0.866667 14:0.466667 15:-1 16:0.0666667 
-0 0 0 1 1 0 0 0 0.8733837644387845 0 0 0 0 0 0 0 0 0 0 0 0 0 0 0 0 1:-0.866667 2:-1 3:-0.733333 4:-1 5:-1 6:-0.0666667 7:0.2 8:-0.6 9:-0.866667 10:-0.0666667 11:0.6 12:0.0666667 13:-0.866667 14:0.466667 15:-1 16:0.0666667 
-0 0 0.2983488267438261 1 1 0 0 0 0.8326649342752384 0 0 0 0 0 0 0 0 0 0 0 0 0 0 0 0 1:-0.866667 2:-1 3:-0.733333 4:-1 5:-1 6:-0.0666667 7:0.2 8:-0.6 9:-0.866667 10:-0.0666667 11:0.6 12:0.0666667 13:-0.866667 14:0.466667 15:-1 16:0.0666667 
-0 0 0 1 0 0 0 0 0 0 0 0 0 0 0 0 0 0 0 0 0 0 0 0 0 1:-0.866667 2:-1 3:-0.733333 4:-0.866667 5:-1 6:-0.0666667 7:0.333333 8:-0.733333 9:-0.733333 10:-0.0666667 11:0.6 12:0.0666667 13:-0.866667 14:0.466667 15:-1 16:0.0666667 
-0 0 0 1 0 0 0 0 0 0 0 0 0 0 0 0 0 0 0 0 0 0 0 0 0 1:-0.866667 2:-1 3:-0.733333 4:-0.866667 5:-1 6:-0.0666667 7:0.333333 8:-0.733333 9:-0.733333 10:-0.0666667 11:0.6 12:0.0666667 13:-0.866667 14:0.466667 15:-1 16:0.0666667 
-0 0 0 1 0 0 0 0 0 0 0 0 0 0 0 0 0 0 0 0 0 0 0 0 0 1:-0.866667 2:-1 3:-0.733333 4:-0.866667 5:-1 6:-0.0666667 7:0.333333 8:-0.6 9:-0.866667 10:-0.0666667 11:0.733333 12:0.0666667 13:-0.866667 14:0.466667 15:-1 16:0.0666667 
-0 0 0 1 0 0 0 0 0 0 0 0 0 0 0 0 0 0 0 0 0 0 0 0 0 1:-0.866667 2:-1 3:-0.733333 4:-0.866667 5:-1 6:-0.0666667 7:0.2 8:-0.866667 9:-0.733333 10:-0.2 11:0.6 12:0.0666667 13:-0.866667 14:0.333333 15:-1 16:0.0666667 
-0 0 0 1 0 0 0 0 0 0 0 0 0 0 0 0 0 0 0 0 0 0 0 0 0 1:-0.866667 2:-1 3:-0.733333 4:-0.866667 5:-1 6:-0.0666667 7:0.2 8:-0.866667 9:-0.733333 10:-0.2 11:0.6 12:0.0666667 13:-0.866667 14:0.333333 15:-1 16:0.0666667 
-0 0 0 1 0 0 0 0 0 0 0 0 0 0 0 0 0 0 0 0 0 0 0 0 0 1:-0.866667 2:-0.866667 3:-0.733333 4:-0.866667 5:-1 6:-0.0666667 7:0.333333 8:-0.733333 9:-0.733333 10:-0.0666667 11:0.6 12:0.0666667 13:-0.866667 14:0.466667 15:-1 16:0.0666667 
-0 0 0 1 0 0 0 0 0 0 0 0 0 0 0 0 0 0 0 0 0 0 0 0 0 1:-0.866667 2:-0.866667 3:-0.733333 4:-0.866667 5:-1 6:-0.0666667 7:0.333333 8:-0.733333 9:-0.733333 10:-0.0666667 11:0.6 12:0.0666667 13:-0.866667 14:0.466667 15:-1 16:0.0666667 
-0 0 0 1 0 0 0 0 0 0 0 0 0 0 0 0 0 0 0 0 0 0 0 0 0 1:-0.866667 2:-0.866667 3:-0.733333 4:-0.866667 5:-1 6:-0.0666667 7:0.333333 8:-0.733333 9:-0.733333 10:-0.0666667 11:0.6 12:0.0666667 13:-0.866667 14:0.466667 15:-1 16:0.0666667 
-0 0 0 1 0 0 0 0 0 0 0 0 0 0 0 0 0 0 0 0 0 0 0 0 0 1:-0.866667 2:-0.866667 3:-0.733333 4:-0.866667 5:-1 6:-0.0666667 7:0.333333 8:-0.733333 9:-0.733333 10:-0.0666667 11:0.6 12:0.0666667 13:-0.866667 14:0.466667 15:-1 16:0.0666667 
-0 0 0 1 0 0 0 0 0 0 0 0 0 0 0 0 0 0 0 0 0 0 0 0 0 1:-0.866667 2:-0.866667 3:-0.733333 4:-0.866667 5:-1 6:-0.0666667 7:0.333333 8:-0.733333 9:-0.733333 10:-0.0666667 11:0.6 12:0.0666667 13:-0.866667 14:0.466667 15:-1 16:0.0666667 
-0 0 0 1 0 0 0 0 0 0 0 0 0 0 0 0 0 0 0 0 0 0 0 0 0 1:-0.866667 2:-0.866667 3:-0.733333 4:-0.866667 5:-1 6:-0.0666667 7:0.333333 8:-0.733333 9:-0.733333 10:-0.0666667 11:0.6 12:0.0666667 13:-0.866667 14:0.466667 15:-1 16:0.0666667 
-0 0 0 1 0 0 0 0 0 0 0 0 0 0 0 0 0 0 0 0 0 0 0 0 0 1:-0.866667 2:-0.866667 3:-0.733333 4:-0.866667 5:-1 6:-0.0666667 7:0.333333 8:-0.733333 9:-0.733333 10:-0.0666667 11:0.6 12:0.0666667 13:-0.866667 14:0.466667 15:-1 16:0.0666667 
-0 0 0 1 0 0 0 0 0 0 0 0 0 0 0 0 0 0 0 0 0 0 0 0 0 1:-0.866667 2:-0.866667 3:-0.733333 4:-0.866667 5:-1 6:0.0666667 7:0.333333 8:-0.6 9:-0.866667 10:-0.2 11:0.6 12:0.0666667 13:-0.866667 14:0.466667 15:-1 16:0.0666667 
-0 0 0 1 0 0 0 0 0 0 0 0 0 0 0 0 0 0 0 0 0 0 0 0 0 1:-0.866667 2:-0.866667 3:-0.733333 4:-0.866667 5:-1 6:0.0666667 7:0.2 8:-0.733333 9:-0.733333 10:-0.0666667 11:0.6 12:0.0666667 13:-0.866667 14:0.333333 15:-1 16:0.0666667 
-0 0 0 0 0 1 0 0 0 0 0 0 0 0 0 0 0 0 0 0 0 0 0 0 0 1:-0.866667 2:-0.866667 3:-0.733333 4:-0.866667 5:-0.866667 6:0.2 7:0.466667 8:-0.866667 9:-0.2 10:-0.2 11:0.466667 12:-0.0666667 13:-0.866667 14:0.466667 15:-0.866667 16:0.0666667 
-0 0 0 1 0 1 0 0 0 0 0 0 0 0 0 0 0 0 0 0 0 0 0 0 0 1:-0.866667 2:-0.866667 3:-0.733333 4:-0.866667 5:-0.866667 6:-0.0666667 7:0.333333 8:-0.866667 9:-0.333333 10:-0.0666667 11:0.466667 12:0.0666667 13:-0.866667 14:0.466667 15:-0.866667 16:0.0666667 
-0 0 0 0 0 1 0 0 0 0 0 0 0 0 0 0 0 0 0 0 0 0 0 0 0 1:-0.866667 2:-0.866667 3:-0.733333 4:-0.733333 5:-0.866667 6:-0.0666667 7:0.466667 8:-0.866667 9:-0.2 10:-0.0666667 11:0.466667 12:0.0666667 13:-0.866667 14:0.466667 15:-0.866667 16:0.0666667 
-0 0 0 0 0 1 0 0 0 0 0 0 0 0 0 0 0 0 0 0 0 0 0 0 0 1:-0.866667 2:-0.866667 3:-0.6 4:-0.866667 5:-0.866667 6:0.0666667 7:0.466667 8:-0.866667 9:-0.2 10:-0.2 11:0.466667 12:0.0666667 13:-0.866667 14:0.466667 15:-0.866667 16:0.0666667 
-0 1 0 0 1 1 1 0 0.988169182552412 0 0 0 0 0 1 0 0 1 1 1 1 0 1 0 0 1:-0.866667 2:-0.866667 3:-0.6 4:-0.733333 5:-0.866667 6:-0.333333 7:0.333333 8:-0.866667 9:-0.2 10:0.2 11:0.466667 12:0.2 13:-0.866667 14:0.466667 15:-0.733333 16:0.0666667 
-0 0 0 0 0 1 0 0 0 0 0 0 0 0 0 0 0 0 0 1 0 0 0 0 0 1:-0.866667 2:-0.866667 3:-0.6 4:-0.733333 5:-0.866667 6:-0.2 7:0.333333 8:-0.866667 9:-0.2 10:0.0666667 11:0.466667 12:0.0666667 13:-0.866667 14:0.466667 15:-0.733333 16:0.0666667 
-0 0 0 1 0 1 0 0 0 0 0 0 0 0 0 0 0 0 0 0 0 0 0 0 0 1:-0.866667 2:-0.866667 3:-0.6 4:-0.733333 5:-0.866667 6:0.0666667 7:0.466667 8:-0.866667 9:-0.333333 10:-0.333333 11:0.466667 12:0.2 13:-0.866667 14:0.466667 15:-0.866667 16:0.0666667 
-0 0 0 0 0 1 0 1 0 0 0 1 0 0 0 0 1 1 0 0 0 0 0 0 0.8568700294171062 1:-0.866667 2:-0.866667 3:-0.6 4:-0.733333 5:-0.866667 6:0.0666667 7:0.466667 8:-0.866667 9:-0.2 10:-0.2 11:0.333333 12:0.0666667 13:-0.866667 14:0.466667 15:-0.866667 16:0.0666667 
-0 0 0 0 0 1 0 0 0 0 0 0 0 0 0 0 0 0 0 0 0 0 0 0 0 1:-0.866667 2:-0.866667 3:-0.6 4:-0.733333 5:-0.866667 6:-0.0666667 7:0.333333 8:-0.866667 9:-0.2 10:-0.0666667 11:0.466667 12:0.0666667 13:-0.866667 14:0.466667 15:-0.866667 16:0.0666667 
-0 0 0 1 0 1 0 0 0 0 0 0 0 0 0 0 0 0 0 0 0 0 0 0 0 1:-0.866667 2:-0.6 3:-0.733333 4:-0.866667 5:-0.866667 6:-0.0666667 7:0.333333 8:-0.866667 9:-0.333333 10:-0.0666667 11:0.466667 12:0.0666667 13:-0.866667 14:0.466667 15:-0.866667 16:0.0666667 
-0 0 0 0 0 1 0 0 0 1 0 0 0 0 0 0 1 0 0 1 0 1 0 0 0 1:-0.866667 2:-0.6 3:-0.733333 4:-0.733333 5:-0.866667 6:-0.333333 7:0.333333 8:-0.733333 9:-0.0666667 10:0.333333 11:0.2 12:-0.333333 13:-0.866667 14:0.466667 15:-0.733333 16:-0.466667 
